token_embedding_table
1.197529 0.654058 0.655052 0.656024 0.657056 0.658062 0.659030 0.660030 0.661026 0.662044 0.663060 0.664036 0.665044 0.666028 0.667028 0.668034 1.031648 0.021387 0.022411 0.023403 0.024409 0.025401 0.026397 0.027382 0.028411 0.029383 0.030389 0.031387 0.032377 0.033399 0.034417 0.035405 1.027426 0.272904 0.273904 0.274904 0.275902 0.276912 0.277910 0.278900 0.279888 0.280908 0.281910 0.282912 0.283906 0.284874 0.285880 0.286894 1.257094 0.848103 0.849105 0.850125 0.851129 0.852125 0.853129 0.854119 0.855127 0.856105 0.857127 0.858131 0.859123 0.860131 0.861119 0.862131 4.485076 0.178678 0.179687 0.180658 0.181678 0.182686 0.183686 0.184690 0.185678 0.186684 0.187686 0.188682 0.189686 0.190699 0.191664 0.192694 17.307806 0.864217 0.865225 0.866227 0.867209 0.868223 0.869211 0.870235 0.871229 0.872207 0.873229 0.874225 0.875199 0.876219 0.877221 0.878219 6.737528 0.498187 0.499191 0.500177 0.501177 0.502179 0.503207 0.504197 0.505201 0.506199 0.507175 0.508195 0.509197 0.510185 0.511193 0.512203 17.324883 0.864480 0.865490 0.866498 0.867506 0.868504 0.869496 0.870490 0.871468 0.872490 0.873474 0.874474 0.875506 0.876500 0.877492 0.878500 17.301350 0.864477 0.865503 0.866471 0.867487 0.868503 0.869497 0.870475 0.871487 0.872505 0.873497 0.874481 0.875477 0.876483 0.877475 0.878505 3.360239 0.124215 0.125213 0.126193 0.127211 0.128199 0.129213 0.130205 0.131215 0.132221 0.133207 0.134217 0.135209 0.136193 0.137207 0.138213 0.506654 0.507856 0.508864 0.509852 0.510850 0.511852 0.512858 0.513864 0.514844 0.515850 0.516832 0.517858 0.518862 0.519842 0.520852 0.521842 0.487943 0.489115 0.490121 0.491111 0.492129 0.493109 0.494127 0.495113 0.496139 0.497111 0.498143 0.499127 0.500115 0.501127 0.502113 0.503125 0.504274 0.505470 0.506466 0.507468 0.508446 0.509450 0.510456 0.511450 0.512460 0.513458 0.514428 0.515454 0.516460 0.517452 0.518460 0.519450 0.489473 0.490649 0.491665 0.492677 0.493651 0.494649 0.495643 0.496681 0.497651 0.498683 0.499657 0.500665 0.501657 0.502669 0.503679 0.504649 0.487059 0.488305 0.489273 0.490295 0.491285 0.492299 0.493273 0.494269 0.495281 0.496277 0.497291 0.498275 0.499293 0.500283 0.501291 0.502275 0.505377 0.506755 0.507785 0.508757 0.509761 0.510745 0.511755 0.512763 0.513779 0.514771 0.515781 0.516757 0.517753 0.518781 0.519765 0.520773 0.522181 0.523563 0.524547 0.525571 0.526553 0.527555 0.528571 0.529561 0.530559 0.531555 0.532565 0.533549 0.534565 0.535553 0.536555 0.537541 0.883141 0.884527 0.885521 0.886529 0.887529 0.888531 0.889507 0.890519 0.891515 0.892507 0.893531 0.894531 0.895541 0.896513 0.897515 0.898529 0.863072 0.864450 0.865440 0.866422 0.867432 0.868438 0.869446 0.870450 0.871454 0.872440 0.873422 0.874452 0.875452 0.876446 0.877456 0.878434 0.363426 0.364820 0.365806 0.366824 0.367812 0.368812 0.369840 0.370820 0.371812 0.372832 0.373802 0.374816 0.375838 0.376820 0.377842 0.378830 0.307270 0.308634 0.309640 0.310614 0.311652 0.312626 0.313642 0.314642 0.315644 0.316648 0.317628 0.318642 0.319630 0.320628 0.321616 0.322636 0.725931 0.727295 0.728289 0.729313 0.730305 0.731285 0.732287 0.733309 0.734309 0.735289 0.736319 0.737309 0.738301 0.739323 0.740295 0.741303 0.489917 0.491289 0.492305 0.493291 0.494309 0.495299 0.496321 0.497297 0.498293 0.499305 0.500287 0.501319 0.502319 0.503295 0.504301 0.505311 0.230735 0.232123 0.233113 0.234127 0.235125 0.236117 0.237109 0.238105 0.239119 0.240111 0.241129 0.242101 0.243103 0.244105 0.245121 0.246119 0.863435 0.864925 0.865945 0.866939 0.867941 0.868945 0.869951 0.870945 0.871921 0.872917 0.873939 0.874923 0.875925 0.876961 0.877951 0.878943 0.862851 0.864411 0.865415 0.866439 0.867433 0.868429 0.869405 0.870405 0.871397 0.872403 0.873411 0.874411 0.875403 0.876439 0.877429 0.878411 0.302374 0.303928 0.304936 0.305920 0.306916 0.307930 0.308908 0.309916 0.310928 0.311934 0.312920 0.313942 0.314932 0.315916 0.316926 0.317914 0.446395 0.447991 0.448959 0.449989 0.450979 0.451965 0.452957 0.453971 0.454963 0.455971 0.456979 0.457971 0.458963 0.459971 0.460979 0.461963 0.107684 0.109244 0.110248 0.111256 0.112230 0.113252 0.114224 0.115246 0.116236 0.117244 0.118238 0.119230 0.120252 0.121224 0.122236 0.123228 0.511992 0.513556 0.514532 0.515546 0.516532 0.517542 0.518526 0.519542 0.520560 0.521560 0.522560 0.523536 0.524536 0.525556 0.526548 0.527532 0.439490 0.441070 0.442056 0.443066 0.444064 0.445066 0.446090 0.447078 0.448088 0.449074 0.450084 0.451084 0.452074 0.453066 0.454094 0.455072 0.158424 0.159994 0.160994 0.161994 0.162994 0.163994 0.164994 0.165994 0.166994 0.167994 0.168994 0.169994 0.170994 0.171994 0.172994 0.173994 
rms_att_weight
1.000000 1.000000 1.000000 1.000000 1.000000 1.000000 1.000000 1.000000 1.000000 1.000000 1.000000 1.000000 1.000000 1.000000 1.000000 1.000000 0.999998 1.000000 1.000000 1.000000 1.000000 1.000000 1.000000 1.000000 1.000000 1.000000 1.000000 1.000000 1.000000 1.000000 1.000000 0.999998 
rms_ffn_weight
1.000004 0.999998 1.000000 1.000000 1.000000 0.999998 1.000000 0.999998 1.000000 1.000000 0.999998 1.000000 1.000000 1.000000 0.999996 0.999998 1.000008 1.000000 1.000000 1.000000 1.000000 1.000000 0.999998 1.000000 1.000000 1.000000 1.000000 1.000000 1.000000 1.000000 1.000000 1.000000 
rms_final_weight
0.999942 1.000000 0.999980 1.000014 1.000000 0.999987 0.999972 0.999988 0.999980 0.999984 0.999998 0.999998 1.000005 0.999986 1.000014 0.999961 
wq
-0.017221 0.004658 -0.041418 0.010029 -0.026489 -0.033849 -0.033121 -0.008735 -0.021979 0.002951 0.011603 0.027862 -0.046503 0.007685 -0.031237 0.041894 0.026358 0.018315 -0.021301 -0.043595 -0.043572 0.046329 0.043169 -0.013819 -0.046515 0.041448 -0.014231 0.002876 0.004957 -0.007968 0.047838 -0.024738 0.030477 0.009136 -0.028079 0.011388 0.038097 0.001656 0.045311 -0.047544 0.026969 0.013883 0.013215 0.002004 -0.022681 0.041891 -0.022038 0.049353 -0.039270 -0.032384 -0.025970 0.011000 -0.013279 0.043394 -0.049507 -0.019172 0.039754 0.040199 -0.038531 0.021140 -0.013761 0.013946 0.030185 0.022641 -0.028212 -0.026434 0.019261 0.007946 0.047222 -0.011987 -0.002811 0.025177 0.013552 0.039912 -0.042421 -0.036190 -0.025916 -0.041980 -0.008945 0.045184 0.020917 -0.041339 -0.046684 -0.003840 -0.032053 0.048253 0.003014 -0.047920 -0.011195 0.041587 0.003045 0.040203 0.033152 0.031398 0.028883 0.037049 0.045331 0.039978 0.012318 0.049184 -0.029690 -0.004598 0.020867 0.039890 -0.010525 0.006056 0.036873 0.019649 -0.005518 0.044231 -0.022372 0.023164 0.026991 -0.028394 0.049279 -0.030425 -0.031772 0.042913 -0.037540 0.048766 0.014279 -0.005545 -0.048919 -0.028824 0.015150 0.018927 0.046687 -0.034263 -0.044767 -0.037013 0.008133 -0.025899 0.047539 0.015455 0.049817 0.011933 -0.030957 -0.034752 -0.029509 0.015688 0.001831 0.028419 0.026706 -0.027805 -0.018501 0.036451 0.017743 0.015993 -0.022434 0.025280 0.045669 0.041480 -0.006399 -0.015163 -0.006848 -0.000267 -0.014860 -0.006499 -0.027693 0.043786 -0.049122 -0.006562 0.040789 -0.016097 -0.009121 -0.004261 -0.003603 0.001261 -0.006053 0.004090 0.036624 0.032082 -0.018025 -0.016390 0.041278 -0.041912 -0.042367 0.010777 0.010958 -0.033222 -0.046137 -0.011614 0.049736 -0.009742 0.025746 -0.019218 0.048171 0.034133 -0.011553 0.034428 -0.004861 -0.028119 -0.005957 0.001194 0.027338 -0.043162 -0.019511 -0.018538 -0.015129 0.023909 0.016068 0.022986 -0.032444 0.044384 0.024862 0.035728 0.021328 0.022772 0.040267 -0.029629 0.041938 -0.001193 0.022433 0.002654 0.001989 -0.032080 -0.018745 0.032295 -0.001975 -0.045186 0.005491 -0.007113 0.048151 -0.007811 -0.010375 0.006023 0.039768 0.003991 0.035099 0.019504 -0.016792 0.005145 0.028330 -0.036726 -0.035880 -0.000759 -0.041370 0.046430 -0.042213 0.045198 -0.048822 0.028976 0.006051 0.003147 -0.010388 0.028239 -0.039924 -0.012716 0.020825 -0.035239 0.018646 0.004556 0.006131 0.034056 0.039605 -0.038670 -0.019525 0.031729 -0.026727 -0.022323 0.007527 -0.014294 -0.010699 0.006009 -0.026452 0.045071 -0.015227 0.019470 -0.049386 0.004821 -0.017219 0.031001 0.006458 -0.000217 0.047606 -0.007383 0.033377 -0.027265 0.001314 -0.017196 -0.000486 0.017056 0.027504 0.025190 0.040053 0.018336 0.046163 0.036090 -0.037932 -0.017648 -0.036667 0.014807 0.003293 -0.030612 0.016286 0.029468 0.030068 -0.049914 0.033052 -0.014310 -0.044712 0.045939 0.003364 0.004071 -0.032097 0.025106 0.011392 -0.022054 -0.022544 -0.030709 0.049527 -0.040458 -0.004716 -0.012833 0.034904 -0.048559 0.026883 0.041643 0.029410 0.045679 -0.017863 -0.021450 -0.039302 -0.041785 -0.046170 -0.018105 -0.023735 0.032952 0.001065 0.049886 0.042975 -0.023838 0.048708 -0.049896 0.013518 0.025432 0.016568 0.039186 0.010477 -0.034580 -0.025094 0.017664 0.038753 -0.027279 0.020735 0.025787 -0.026067 -0.016432 -0.030247 -0.049241 -0.020544 0.028928 0.030172 0.023290 0.015513 -0.045044 -0.013974 -0.008410 -0.026765 0.014596 0.036917 0.007680 -0.007667 -0.016508 -0.025079 -0.004642 -0.039558 0.000400 0.042399 -0.018737 -0.037599 -0.001668 -0.041162 0.023205 0.004233 -0.023957 0.028185 0.002001 0.024972 0.032604 -0.030255 0.004269 0.002247 -0.029199 -0.021640 -0.047441 0.038282 0.039187 -0.009187 -0.020807 -0.049806 -0.013804 -0.011040 0.048896 0.023691 -0.036176 -0.040538 -0.026377 0.022763 -0.043645 0.046487 -0.008117 0.009804 0.031889 0.043462 0.045662 0.016319 0.022035 -0.029944 -0.030790 0.002431 0.037183 -0.048872 -0.026398 0.005229 0.025013 -0.011129 -0.013514 -0.002034 0.049292 -0.020543 -0.014916 -0.023187 -0.048945 0.028050 -0.009383 0.003300 0.042374 -0.011395 -0.021682 -0.004068 -0.004448 -0.029774 0.033479 -0.049587 -0.040380 0.027725 -0.024353 0.001824 0.001408 -0.003034 0.010354 -0.030175 0.004693 0.018704 0.002265 0.036342 0.049439 0.029855 0.024760 0.015689 -0.039862 -0.020915 -0.002047 0.012486 -0.039217 0.041386 -0.040281 -0.026135 0.019640 -0.002577 -0.042795 -0.030278 -0.009667 0.039563 0.029844 0.049475 0.048665 -0.024233 -0.040531 -0.004021 0.047706 0.041389 -0.001424 0.021836 -0.042177 -0.009879 0.003025 -0.028327 0.009420 -0.041548 0.016486 -0.020753 -0.013514 -0.038230 -0.006733 0.016207 0.045114 -0.001602 0.022849 0.011906 -0.010506 0.045700 0.011871 0.035876 -0.021392 0.010555 -0.047746 0.010246 -0.005184 0.034695 -0.020235 -0.020944 -0.041503 0.018569 0.047688 0.012018 -0.017498 -0.020300 0.025091 -0.034336 -0.040096 
wk
0.048793 0.016021 0.000898 -0.018946 0.048920 0.036495 0.035698 -0.044570 0.026338 0.034741 -0.009701 0.046075 -0.038384 0.035575 0.024865 -0.046502 -0.042363 -0.017303 0.030356 0.044128 -0.025431 -0.042748 0.025615 0.014533 -0.034200 0.040309 0.016517 -0.023901 0.007550 -0.044588 -0.042846 -0.043927 0.028429 0.023326 -0.047480 -0.011939 -0.001922 -0.012644 0.007996 0.025645 0.001163 -0.020104 0.002338 0.045813 0.017668 -0.007696 -0.039866 0.039613 0.037147 -0.002652 -0.019606 -0.033243 -0.019277 -0.047836 0.006003 0.012516 -0.006237 -0.025153 -0.001595 -0.044011 -0.028117 0.040895 0.046670 -0.029420 -0.006553 0.023484 0.003337 0.002312 -0.005646 0.022780 -0.017716 -0.042477 -0.022293 0.022148 0.003029 0.042185 -0.023570 -0.043071 0.013588 -0.043085 0.045437 0.030876 0.020640 -0.017166 0.037664 -0.034650 -0.009090 0.045996 0.005243 -0.005272 -0.003720 0.033184 -0.030006 0.045809 -0.032379 0.040617 0.033124 0.011832 -0.045319 0.018757 -0.049719 -0.037706 -0.043020 -0.040193 0.026433 0.020495 0.041449 0.045423 -0.006209 0.045025 0.043957 0.024470 0.007136 -0.019156 -0.019031 0.004163 0.033707 0.022441 0.024746 0.002911 -0.013217 0.023893 0.027083 -0.010325 0.010549 0.032287 -0.029657 -0.018414 0.043060 -0.010704 0.012030 0.005278 0.009915 -0.013575 -0.040033 0.035840 -0.037259 0.024983 -0.020951 -0.039301 -0.000641 -0.005897 -0.000258 -0.002820 -0.011882 0.016830 0.029934 -0.004114 -0.000172 0.024509 0.021646 -0.043455 -0.029917 0.024212 0.046186 -0.011271 0.027896 -0.034753 0.008521 0.020440 -0.001097 0.046788 0.009380 0.018686 -0.025016 0.019003 -0.046455 0.031018 0.007076 0.022759 -0.009860 0.048807 0.044321 -0.004325 0.026481 -0.000519 0.003386 0.004221 0.038942 -0.028026 0.016102 -0.039444 0.016524 0.043273 -0.003197 0.026862 0.027521 -0.045020 0.039723 -0.025317 0.016771 0.041588 -0.029568 -0.017077 0.018716 -0.026700 -0.004128 -0.045537 -0.024571 -0.014003 0.013769 0.009176 0.038528 -0.036869 -0.035189 -0.005546 -0.038023 -0.048261 0.031851 -0.008216 0.039558 0.035384 0.048939 -0.002173 0.037585 0.046601 0.046682 0.042644 -0.030067 0.013460 -0.006412 -0.033673 -0.006043 0.037975 0.002727 0.026375 0.044843 0.027715 0.001607 -0.031849 -0.040635 0.040546 0.020529 0.041256 0.038963 -0.024794 0.012630 0.038116 0.009598 -0.017604 -0.044150 0.004610 0.020530 0.044475 0.007866 0.011329 -0.022623 0.023278 -0.014936 0.038368 -0.030749 0.006578 0.005107 0.038468 -0.029214 -0.022969 -0.020365 -0.022671 -0.036035 -0.027698 -0.015571 -0.010937 -0.014494 0.009712 0.026875 0.044597 0.011654 0.028007 0.045870 -0.018533 0.037339 -0.006707 -0.009861 -0.032861 0.042425 -0.024065 -0.026927 0.038660 0.027339 -0.020852 0.046451 0.000340 0.024921 0.024867 0.044823 0.037447 0.014832 0.049136 -0.048638 0.009074 0.005717 -0.029359 0.000007 -0.012632 0.007672 0.031560 0.040261 -0.037772 0.010248 -0.014027 0.043429 -0.012767 0.004161 0.013231 0.002644 -0.000691 -0.042685 0.037150 0.029250 0.034668 0.041035 0.041045 0.048129 -0.003522 0.040368 -0.036552 -0.044128 -0.007943 0.037050 -0.034445 -0.022407 -0.001945 -0.015185 0.042229 0.009724 0.000987 -0.006874 -0.017945 -0.004695 0.049633 0.010984 -0.030531 0.013761 -0.023112 0.016813 0.040506 -0.042692 -0.020687 0.023767 0.006187 0.048439 0.034249 -0.000794 0.032821 0.044837 -0.019817 0.045534 -0.027323 -0.038822 -0.039893 0.042008 0.022396 -0.010827 -0.008562 -0.026750 -0.003569 -0.045201 0.013255 -0.003015 -0.001484 -0.021471 0.047642 -0.021648 0.033359 0.019884 -0.032480 0.044079 0.011208 0.041623 -0.003808 -0.049729 -0.013438 -0.026696 0.009075 -0.004107 -0.037890 0.036291 0.048486 -0.019929 0.004172 0.025311 0.011847 0.011607 -0.047358 -0.024299 0.018104 -0.008542 -0.018958 -0.045517 -0.014949 0.047708 -0.025202 0.006913 0.048641 -0.044871 0.036940 -0.025495 -0.000169 0.021842 -0.010658 -0.048692 -0.026485 -0.037888 -0.042471 -0.005327 0.016971 0.039740 -0.023620 -0.034947 -0.016362 0.027834 -0.049378 0.019365 0.038451 -0.047074 -0.011250 -0.014762 -0.002999 -0.033179 0.013944 0.047110 -0.046125 -0.027316 -0.016496 0.005275 0.007918 0.037719 -0.014552 -0.041007 0.048290 0.001692 -0.033846 0.049305 -0.015720 -0.032314 0.027620 -0.020861 -0.048354 -0.038251 0.039559 -0.047709 -0.049866 -0.043982 -0.002906 0.009481 -0.023069 0.032425 0.048103 -0.043759 0.047856 -0.019393 -0.011278 0.006970 -0.038431 0.025518 -0.014257 -0.001394 0.017820 0.021459 0.019635 0.010299 -0.007888 -0.010348 -0.025546 0.022598 0.019819 0.047785 0.012951 -0.001090 -0.026526 0.025649 -0.047763 0.045094 0.028879 0.034971 0.047493 -0.004919 0.037994 0.029820 -0.019374 -0.015243 0.005623 -0.041013 0.037297 0.043094 0.032325 0.019989 0.042998 0.004619 -0.018363 -0.029607 0.034860 0.018734 0.000208 0.035301 -0.049027 0.031280 0.002600 0.025169 -0.001836 0.000669 -0.012994 -0.034949 0.035742 -0.048117 -0.040739 -0.003492 0.037750 0.016974 0.013797 -0.031208 0.022333 
wv
-0.037842 0.009039 -0.039163 -0.014407 0.010819 -0.022024 0.044992 0.004266 -0.046882 -0.011644 -0.032757 0.019999 0.021166 -0.022721 0.045480 0.023658 0.019519 0.008535 0.013751 0.029276 0.030623 -0.039733 -0.037318 0.001953 -0.000726 0.006099 0.036384 0.028132 -0.038326 -0.017585 -0.041090 -0.035209 -0.011230 0.008785 0.017455 -0.022910 -0.004686 -0.026308 -0.048110 0.023796 0.015954 -0.032320 0.005994 -0.040112 -0.048776 0.024822 -0.001623 0.038563 0.012939 0.039667 0.035409 0.028471 0.004113 0.038719 0.027809 -0.042834 0.042411 0.046101 -0.029341 -0.033927 -0.001707 -0.017983 0.030508 0.033816 0.017928 0.023841 0.040241 0.034061 0.004476 -0.049643 -0.014704 0.026047 -0.017630 0.026112 0.028137 0.024912 0.033080 -0.026901 -0.022491 -0.042965 0.030399 -0.001226 -0.016812 -0.035006 -0.044386 -0.030051 -0.027127 0.018616 0.018143 -0.041728 -0.013086 0.022710 0.040113 0.033582 -0.047276 -0.036942 0.021493 0.003763 0.044667 0.042345 0.034107 -0.008809 -0.041710 0.012223 0.004536 -0.027287 0.003678 -0.038557 0.041232 0.011412 0.035642 0.027080 -0.013697 0.011817 0.049600 -0.018750 0.016457 0.040688 0.032248 0.001179 -0.026595 -0.021768 0.019316 -0.029126 -0.015299 0.004505 0.006757 0.027479 0.012429 -0.025971 0.043458 -0.004263 -0.022281 -0.015339 0.039336 -0.003250 0.009733 0.039825 -0.035342 0.039598 0.042985 0.019702 0.025689 -0.007198 0.036476 -0.049852 -0.027891 -0.010151 0.032311 0.009795 0.010350 0.034387 0.031528 -0.000868 0.034911 -0.004455 0.032832 -0.022362 0.012427 0.046639 -0.012729 -0.021163 -0.007327 -0.040792 -0.006805 0.046630 0.025548 -0.026373 0.005230 0.003262 -0.038512 -0.031963 -0.035946 0.002842 -0.033885 -0.024616 -0.003731 -0.037234 -0.027093 -0.036074 0.040976 0.019646 0.041574 -0.026400 0.016032 0.036944 0.025669 0.021841 0.000655 0.016204 0.024164 -0.029843 -0.004191 -0.040626 0.004896 -0.015183 -0.016144 -0.037603 0.047737 0.022232 -0.037142 -0.008710 0.014156 0.028250 -0.012186 0.031582 -0.013958 -0.017590 -0.015339 0.000567 0.015084 -0.014570 0.039848 -0.025631 0.033823 0.001354 0.005777 0.035209 -0.044226 -0.015255 -0.042086 0.005565 -0.031935 -0.024192 -0.020241 -0.007715 0.011759 0.043782 -0.024458 -0.010808 -0.035248 -0.043953 0.033189 0.040462 0.004716 -0.017449 -0.008467 -0.043413 0.026091 -0.037675 -0.041229 -0.049307 -0.017675 -0.027863 -0.037375 0.017231 0.001875 0.047906 0.014534 -0.025973 -0.036426 0.031881 -0.005305 -0.035294 -0.029136 -0.023364 0.031641 -0.049835 -0.028197 0.021831 0.033631 0.011806 -0.037659 0.020570 -0.001920 0.046126 0.001175 -0.033239 0.016475 -0.033343 0.008498 -0.033026 0.020622 0.004104 -0.010559 -0.023146 0.014998 0.008579 -0.001629 0.004214 -0.026255 0.008105 -0.021653 0.020791 -0.043666 0.032162 -0.019260 -0.045030 -0.033725 0.043787 0.035009 0.028789 -0.040700 -0.022654 0.016516 0.004123 -0.018099 0.015182 0.037095 0.005071 -0.026579 0.008260 -0.013631 0.005523 -0.027695 -0.041639 0.019950 0.007322 -0.025482 -0.013078 0.016229 0.031296 -0.046727 0.008377 0.032451 0.033796 0.000681 0.010032 -0.044713 -0.010306 0.014864 -0.015093 -0.014794 -0.035935 0.026897 0.000759 -0.007968 -0.008744 0.028533 -0.014327 -0.036919 0.016856 0.011525 0.000811 -0.007557 0.044405 -0.011439 -0.007878 -0.028458 -0.016509 -0.042826 -0.008435 -0.033696 0.044511 0.032454 0.005821 -0.000348 0.009296 -0.000435 0.027990 -0.049388 0.049316 -0.048292 -0.037060 0.047625 -0.028311 -0.019320 0.004005 -0.003924 -0.008179 0.028700 -0.025936 -0.029681 -0.010471 0.043466 0.011892 0.039915 -0.016748 -0.047354 -0.035127 0.042623 -0.044930 0.049817 0.020288 -0.042409 0.024422 -0.040248 -0.035357 0.031845 0.049955 0.021692 0.019390 -0.026945 0.003230 -0.001165 -0.024028 -0.045334 0.014762 0.040117 0.000376 -0.002839 0.033999 -0.026716 0.036984 0.002813 0.030441 -0.001213 0.036112 0.002473 0.047543 -0.042554 -0.007233 0.004556 -0.033405 -0.007420 -0.007619 0.041769 -0.003347 -0.024979 -0.029818 -0.029422 -0.047661 0.000453 -0.008793 -0.022207 -0.045765 0.012265 -0.002650 0.004530 0.011494 -0.019085 0.036850 -0.019746 -0.012264 0.017142 -0.016891 0.008540 0.007084 -0.026101 -0.038080 -0.012960 0.036930 0.013156 -0.033874 0.048224 -0.035204 0.031495 0.001823 -0.014850 0.017024 -0.002522 0.040011 -0.014418 -0.034989 -0.004615 -0.038827 -0.006915 0.031730 -0.017617 -0.026073 0.025476 0.009746 -0.009632 0.018719 -0.048871 0.027809 -0.014123 0.004624 -0.035086 -0.019060 0.046567 -0.007276 -0.009785 -0.004107 -0.027690 -0.046795 -0.041458 0.004755 0.024520 -0.025572 0.009218 -0.025745 0.020057 0.016553 -0.001485 -0.004730 -0.010395 0.034733 -0.037553 0.002418 -0.049554 -0.017458 -0.031426 0.007897 -0.039228 0.018743 0.034562 0.015084 0.021878 -0.010410 -0.020871 0.015474 0.022854 -0.001445 0.030834 -0.029942 0.006595 0.040267 -0.010103 0.018263 -0.019511 -0.029342 -0.019995 0.019671 -0.032622 -0.027724 0.044121 -0.034758 -0.012042 0.002275 0.014770 -0.049928 
wo
0.039081 -0.033227 0.032148 -0.028536 0.028084 -0.005882 0.020613 -0.037127 0.015890 0.020258 -0.003363 0.037788 0.035647 -0.047234 0.037277 0.001542 -0.003448 0.034940 -0.021656 0.002211 -0.027444 -0.026693 -0.012406 -0.028810 0.039132 0.015087 0.019310 -0.010734 -0.039439 0.023720 -0.016074 0.024196 0.043577 -0.040823 0.015541 -0.021651 0.007717 0.031266 0.037837 0.048796 0.043905 -0.037262 -0.033241 -0.031829 0.044036 -0.024843 -0.032847 -0.041561 0.008489 -0.017349 0.029004 -0.037872 -0.037344 -0.017968 0.045849 0.027462 0.044711 0.002969 -0.007797 -0.011211 0.013032 0.014201 0.013299 0.040915 0.040257 -0.004181 0.034566 -0.044018 0.001340 0.047715 0.018841 -0.013056 0.015376 0.025021 0.011052 -0.006182 0.027756 -0.045731 0.030660 0.012843 -0.031250 -0.009822 0.016608 -0.049462 0.034173 0.015137 0.023429 -0.033434 0.041992 -0.003616 -0.044604 0.027129 0.048222 -0.025794 0.026582 -0.000200 0.045711 0.048647 -0.013863 0.030266 0.047437 0.023324 -0.002517 -0.040328 0.031476 0.042520 -0.003741 0.020024 0.001047 -0.026636 0.031280 -0.027041 0.013142 -0.010691 -0.029210 -0.030411 0.014977 0.039094 0.032803 0.001935 0.004822 0.001152 -0.035897 -0.004437 -0.034593 0.042778 -0.007909 0.023678 -0.012657 -0.045488 -0.017439 0.026361 -0.032986 -0.040002 0.014221 0.014096 -0.043612 -0.029875 -0.013576 0.035641 -0.015385 -0.001482 0.044156 0.031939 -0.014818 0.039632 -0.039448 0.015282 -0.018552 -0.022616 -0.012787 -0.035287 -0.043272 0.014092 -0.049475 0.044983 -0.021848 -0.038154 0.015696 0.003806 0.030237 0.018621 -0.040569 -0.031644 -0.040817 -0.013451 -0.012781 0.039998 0.036098 0.037099 -0.046177 -0.028236 -0.024418 0.004282 -0.022604 0.042156 0.001527 0.048422 0.044680 -0.048163 0.012517 0.000260 0.039647 -0.006317 0.044348 0.012369 -0.037136 -0.019855 -0.032257 -0.020275 0.042516 0.002772 0.032658 -0.044999 0.017972 0.031202 -0.004776 -0.019774 0.021720 -0.039383 -0.045308 0.014239 0.007119 0.006003 0.028812 -0.030000 -0.042391 -0.034630 -0.026034 0.017605 -0.022791 -0.027572 0.030269 -0.042696 -0.023437 -0.031943 0.040906 -0.001189 0.026679 -0.027114 0.040542 -0.023181 -0.034341 0.038418 0.012559 -0.018436 -0.045170 0.012201 -0.043355 -0.012911 0.037424 0.014463 -0.012559 -0.023645 -0.031912 0.019611 0.042128 -0.043220 -0.011381 -0.002588 0.001221 0.040946 -0.017033 -0.008849 -0.027349 0.022821 -0.016615 0.038406 0.000558 0.034945 0.014003 0.027276 0.000986 0.013918 0.029254 0.040783 0.040306 0.036527 -0.015124 0.012886 -0.044083 0.017603 0.022990 -0.039874 0.020770 0.042194 -0.000372 0.040903 0.003527 0.040219 0.016152 0.013256 0.012730 0.029731 0.027460 0.005133 0.028324 -0.027322 0.028744 0.024862 -0.022124 0.034286 -0.013473 0.028118 -0.019989 -0.027166 -0.000662 0.002621 -0.014127 -0.040326 0.024969 0.046710 0.037542 -0.045394 0.002193 -0.034200 -0.003475 0.007572 0.025276 0.023105 -0.045974 -0.048549 0.032030 0.015432 0.036423 -0.018764 -0.010087 -0.035315 -0.002666 0.043742 0.048759 0.029595 -0.040372 -0.021664 0.022857 0.040192 0.047381 -0.019753 -0.004286 0.047313 0.020785 0.043530 0.006496 -0.011846 -0.022494 -0.046643 -0.008563 0.021550 -0.029881 -0.014030 -0.048673 0.019858 -0.032196 0.028118 0.045783 0.045656 -0.046019 0.027266 0.047400 0.014307 -0.002684 0.001171 0.000616 -0.010182 -0.027394 0.013710 -0.048051 -0.027359 -0.016327 0.033272 0.026191 0.046024 0.018113 -0.009351 0.038710 0.040419 0.022619 -0.025222 0.014311 0.043970 -0.009616 -0.039149 0.041248 0.012086 -0.015749 0.004376 -0.025714 0.040614 -0.026309 0.007912 -0.013782 -0.001573 0.039922 -0.017927 -0.012199 -0.008849 0.033724 -0.029482 0.035493 0.049893 -0.022038 -0.019813 -0.045331 -0.005354 0.002064 -0.009239 0.000890 0.047120 0.012392 0.045046 0.005236 0.028379 0.038197 -0.036068 0.031500 0.043436 0.018093 0.011709 -0.005576 -0.048878 -0.041086 0.034769 -0.018930 -0.049383 -0.038918 0.043656 -0.018141 -0.044721 0.020931 0.043747 -0.016965 0.011893 -0.039194 0.023890 -0.020043 0.001717 -0.033104 0.048675 -0.031625 -0.008572 0.044955 0.045776 -0.042881 -0.003131 -0.029735 -0.019519 -0.022200 0.004427 -0.034025 0.043835 -0.046669 0.034803 0.032038 0.018192 0.032771 -0.020129 -0.005295 -0.045461 -0.023299 -0.020127 0.042025 -0.049734 0.002728 0.008430 0.033011 -0.035364 0.047817 -0.043432 0.032918 0.030268 0.034381 -0.006586 -0.014215 0.030909 0.049361 -0.040547 0.021137 -0.038790 0.014412 0.042569 -0.028095 -0.016235 -0.043355 0.049577 -0.034906 0.005251 0.039982 -0.021440 -0.003382 0.038253 -0.029748 -0.012635 -0.042575 -0.034746 -0.031784 -0.030740 -0.034972 0.009844 0.043358 -0.038765 -0.010736 -0.042074 0.015152 0.005014 -0.004045 0.007749 -0.009027 0.007595 -0.006310 -0.029766 0.030672 -0.047973 0.042518 -0.032627 -0.028709 0.044328 0.045094 0.039802 -0.011260 0.022015 0.038083 0.000902 -0.025121 0.027454 0.031346 -0.019525 -0.012819 0.007719 0.044373 -0.034424 -0.046301 0.026219 
w1
-0.028635 0.040339 0.014831 0.014798 0.018992 -0.013842 -0.018191 0.003714 -0.010722 0.005967 0.007096 -0.048972 0.031675 0.026345 -0.020405 -0.049461 0.023612 -0.002506 -0.020620 0.003942 -0.035905 0.032417 -0.038000 0.029596 0.049106 -0.012936 0.029281 0.030272 -0.047083 0.011423 -0.044704 0.033471 0.002840 -0.032649 -0.006744 0.030593 0.011393 -0.046744 0.049140 -0.025329 -0.031585 0.004448 0.049827 0.008652 0.041336 -0.014745 0.032038 0.025540 -0.000308 -0.032903 0.014184 0.000300 0.010699 0.048970 -0.013593 0.008085 0.035376 0.002518 -0.002748 0.037946 -0.018754 -0.014780 -0.008071 -0.001840 -0.046350 0.034568 0.012947 0.043411 0.038423 0.033486 -0.033978 0.029652 0.004104 0.036601 -0.006659 -0.010056 0.047749 0.037870 0.035923 -0.018702 -0.048712 0.007407 0.000734 0.037881 -0.006802 0.013987 -0.037062 0.010618 0.025810 0.018398 -0.028234 0.043738 0.033505 0.009193 -0.032362 0.009002 -0.043642 0.033160 0.017226 0.046249 -0.007591 0.019644 -0.046124 -0.027611 0.027482 0.048837 0.049128 -0.031236 0.024182 0.002061 0.018448 -0.039255 -0.022529 -0.018102 0.014947 -0.044879 0.038383 0.012703 -0.044972 0.021945 0.025878 0.031759 0.013357 0.007638 0.028480 -0.020641 -0.029238 -0.028266 -0.015990 -0.007070 0.031778 -0.043688 -0.027183 0.012420 0.004106 -0.039645 -0.044852 -0.045010 0.042637 -0.043955 0.022327 -0.031955 0.025509 -0.008678 0.043411 -0.041525 -0.017696 -0.004649 0.033803 0.032965 -0.007864 0.017893 0.035434 -0.034211 -0.014489 -0.000812 0.007237 -0.049072 -0.042989 -0.007736 -0.023498 0.025612 0.015528 -0.036074 -0.021267 0.037240 0.040211 -0.031848 -0.021983 0.003717 0.005774 0.021366 0.020136 -0.004243 -0.035457 0.027570 -0.011238 0.049852 0.024144 0.003620 -0.039331 0.023746 0.045993 0.026526 -0.024161 0.037537 -0.016854 0.044625 -0.018803 0.030431 -0.021596 0.036785 -0.038817 0.021454 -0.049585 0.038205 0.015934 -0.038037 0.003849 0.035937 -0.031269 0.011302 -0.017622 0.005160 0.046309 -0.040686 0.043592 0.041878 0.032737 0.040103 0.038406 0.044235 -0.009742 -0.033732 0.044687 0.023797 0.025680 0.015296 0.041026 0.021633 0.006048 -0.037952 0.027047 0.004415 0.017257 -0.007065 -0.027175 -0.039996 -0.006632 0.007191 -0.021523 0.001473 0.016086 -0.037784 -0.012774 -0.005552 0.014796 -0.007087 0.010420 -0.048373 -0.008155 0.033341 0.031732 -0.022247 -0.030383 0.013155 -0.034069 0.002252 -0.018602 -0.010870 -0.001684 0.011897 -0.009928 0.004955 -0.047862 -0.021829 -0.048855 -0.041348 -0.045143 -0.042023 -0.028652 0.022568 0.035761 -0.030704 0.039287 0.035783 -0.007997 0.000715 0.002489 0.032568 0.012252 0.048609 -0.027749 -0.003725 -0.006333 0.001581 -0.024616 -0.047706 -0.001031 -0.021696 0.030017 0.025858 0.011766 -0.045905 -0.017757 0.018883 0.047403 0.007893 0.024754 -0.003239 0.008419 0.033436 -0.027509 0.044949 -0.042679 -0.040284 -0.012660 -0.040642 -0.037853 -0.036637 -0.049883 -0.011115 -0.000263 -0.032827 -0.049055 -0.007088 0.012275 -0.006833 -0.037922 0.006227 0.011369 -0.043263 0.001516 0.047816 -0.020453 -0.041947 0.043424 -0.022817 -0.006285 0.017653 -0.041711 -0.045976 -0.013088 0.005331 0.035307 0.018389 0.027501 -0.004614 0.041220 0.042680 0.004381 0.000431 -0.002330 0.040967 -0.028030 -0.013955 0.019184 -0.049176 0.037259 0.005087 0.017713 -0.030758 0.048601 0.024231 -0.042169 -0.039412 0.017643 -0.039982 -0.011367 -0.043302 0.009604 0.040862 0.032811 -0.015115 -0.002159 -0.007364 -0.036552 0.010768 -0.023493 -0.048130 -0.048091 0.046550 0.023477 0.034865 -0.042447 0.022712 -0.015694 0.045946 0.005259 0.037186 -0.029197 -0.031347 0.041700 -0.003700 -0.035580 0.002544 0.010628 0.035882 0.005662 -0.003785 0.012310 -0.019628 0.032500 -0.036267 0.007149 -0.009142 -0.019259 -0.037797 -0.011067 -0.009353 -0.043327 0.019682 -0.007714 -0.048593 -0.023689 0.011163 0.016548 0.035237 -0.032148 0.036806 0.049888 0.002953 0.037176 0.003069 -0.026342 0.029462 0.036907 0.047632 -0.045292 -0.022859 -0.003340 -0.030361 0.029838 0.012255 -0.046154 0.022692 0.026726 -0.015637 0.040800 0.040012 0.031148 -0.005212 -0.031382 0.047248 -0.008541 0.004344 -0.037308 -0.048674 0.028860 0.040221 -0.037358 0.036439 0.038557 0.003271 -0.041766 0.043814 -0.037244 0.007437 0.031022 0.004700 0.029074 -0.039400 0.033027 0.034297 0.025507 -0.005407 -0.012569 0.027517 0.001834 -0.044656 0.024070 -0.000551 -0.012240 -0.031800 0.011571 -0.008737 0.031943 -0.017589 0.013789 -0.023143 0.041226 -0.022556 -0.047518 0.004644 -0.014252 -0.035616 0.009147 0.046644 0.020719 -0.034311 0.037743 0.022935 -0.041185 -0.015344 -0.027946 -0.038101 -0.017037 -0.008064 -0.005695 0.039761 0.006569 0.039871 0.017977 -0.037378 -0.048641 0.020986 0.035263 0.008788 -0.000734 0.016682 0.004958 0.034599 -0.032075 -0.026633 -0.026884 -0.007717 -0.032727 0.045401 -0.031330 -0.026054 -0.013666 -0.040869 -0.011147 -0.034325 0.011364 0.009439 0.010940 -0.045755 0.020574 -0.008905 -0.009260 0.023376 -0.034468 -0.006737 0.026801 0.004230 0.012142 -0.015268 -0.018719 0.039114 -0.017235 -0.041032 0.042591 0.022570 -0.009176 0.006856 0.047042 -0.010423 0.049009 -0.003225 0.000049 0.038944 0.014367 -0.036815 0.024083 0.038293 0.000853 -0.049447 -0.039526 -0.043391 0.036787 -0.017138 0.043697 0.046403 0.005279 0.018515 -0.005816 -0.032482 0.031135 -0.045802 -0.016997 0.012068 0.039752 -0.022700 -0.014256 0.001524 0.047374 -0.043640 0.006825 0.033777 -0.004058 -0.032568 -0.040249 0.048676 0.015654 -0.003894 0.045365 0.032513 0.020794 0.035342 -0.006278 -0.020932 -0.028748 -0.017833 -0.011808 0.040182 0.018235 0.024259 -0.007436 0.018872 0.025810 -0.043125 -0.026849 0.006291 0.049201 -0.049517 0.028500 0.034018 0.014980 0.027829 -0.017872 0.037305 0.025624 0.028349 -0.015501 -0.023595 0.012199 0.031483 -0.027332 0.029295 0.029409 0.014792 -0.040672 0.007661 0.014995 0.027480 -0.046499 0.047486 -0.023652 0.047313 -0.026945 0.021156 0.006999 0.020604 0.040415 -0.048464 -0.020324 -0.022268 -0.034862 -0.036688 -0.029118 0.027256 0.005576 -0.046491 0.000576 -0.007228 -0.025459 0.008885 0.016569 0.011208 0.029387 -0.023194 -0.020928 -0.001933 -0.010070 -0.025657 0.002171 0.035196 0.026340 0.039673 0.039527 -0.049454 -0.003626 0.045609 0.038919 0.019926 -0.030438 0.027369 0.001270 0.042844 0.036815 0.002013 -0.031213 -0.003266 -0.024086 -0.027957 0.018852 -0.020490 0.032020 -0.021832 0.031936 -0.010754 0.044826 0.000132 -0.007950 -0.012703 0.010164 0.017851 -0.023480 0.024078 0.000992 0.017875 -0.031291 -0.014931 -0.027495 0.021669 0.011332 -0.044061 -0.022471 -0.047745 0.049047 0.048443 -0.021138 -0.011838 0.030879 -0.042185 -0.041641 0.001715 0.023076 -0.022202 0.000022 -0.049978 -0.039619 0.017512 0.012031 -0.042511 -0.040682 -0.029711 0.022227 0.043561 0.020689 0.034977 0.027067 -0.043883 -0.026524 -0.004276 -0.016619 0.034852 0.001706 0.031673 -0.027869 0.024815 0.045094 0.019629 0.003554 -0.029574 0.014566 -0.046708 -0.007905 0.041777 -0.006676 -0.010931 0.033247 -0.029533 0.026284 -0.001309 0.041301 -0.020136 -0.031390 0.003715 0.012683 0.046408 0.029545 0.018883 -0.040891 0.037211 0.048160 -0.020863 0.000201 -0.033639 0.001745 -0.025100 0.038557 -0.020559 0.004257 0.029331 0.007297 -0.005811 0.025439 0.008482 0.023731 -0.013020 0.021974 0.003299 -0.034278 -0.001341 -0.015289 -0.039487 -0.021677 -0.019565 -0.026890 0.049520 0.035506 -0.032751 0.006780 -0.004507 -0.028575 -0.047597 -0.001409 -0.034427 -0.024638 -0.018219 -0.012209 0.033341 0.032247 -0.001306 -0.026457 0.035764 0.041923 0.019993 0.028745 0.029214 0.047960 0.043569 -0.012680 -0.039135 0.023374 -0.027245 0.034939 0.027280 -0.030129 0.022543 0.024188 0.002462 0.011319 -0.035186 -0.012058 -0.009766 0.025646 0.032453 -0.007056 0.025648 -0.014036 -0.022517 -0.045502 0.038088 -0.019264 0.017783 -0.031063 0.021035 -0.007299 -0.029680 0.029878 -0.033454 0.044356 0.018490 0.042318 0.003617 -0.007460 -0.000817 0.035862 0.021407 0.047902 -0.028477 0.009435 0.047095 0.028408 0.032780 0.027968 -0.036191 0.048325 -0.040376 -0.023564 -0.031076 -0.005659 -0.033987 -0.044621 -0.003198 -0.023391 -0.029880 0.010884 0.038181 -0.015370 0.047578 0.020286 0.034923 0.043685 0.009254 0.007788 0.039097 -0.003715 -0.017668 0.042530 0.004944 -0.002540 -0.044817 0.042279 -0.002363 0.014324 -0.010492 0.006601 -0.046778 -0.031023 0.020408 -0.009346 0.028893 0.014614 -0.011398 0.040360 0.026283 0.018610 -0.003836 0.024829 0.037798 -0.010984 0.023764 0.001736 -0.004097 -0.010539 -0.002523 0.025815 0.017053 -0.012405 0.047573 0.049202 0.015775 0.005321 -0.021299 -0.044260 0.019304 -0.006195 -0.009627 -0.029947 0.016254 -0.047413 -0.010371 -0.009899 -0.031168 -0.037662 -0.044349 0.040260 0.029352 0.033364 0.025732 -0.025448 -0.016140 0.038105 0.013899 0.010509 0.017672 -0.006116 -0.008501 -0.036016 0.011681 0.026735 -0.012138 -0.011243 -0.037423 -0.024733 -0.038774 -0.016654 -0.031823 -0.030681 -0.020391 -0.037771 -0.007076 -0.045417 -0.009902 -0.005247 -0.005111 0.019111 0.038484 0.049966 -0.020010 0.039371 0.025052 0.036303 -0.005832 0.025305 0.035450 0.021057 -0.006354 -0.037202 0.044207 0.035523 0.029039 -0.028152 0.012503 0.018585 -0.002953 -0.016290 0.030673 -0.034672 -0.024366 0.048617 0.028165 -0.010541 -0.004686 -0.044445 -0.040192 0.028618 -0.004287 0.006371 -0.027720 -0.049291 0.032912 0.041425 0.004432 0.038426 0.047385 0.041151 0.006717 0.047362 0.032867 -0.008447 0.043996 0.031522 -0.029363 -0.002075 0.012849 -0.037757 0.033053 -0.040654 -0.039578 -0.032449 0.034814 0.033357 -0.010689 -0.006438 0.033636 -0.035147 -0.044715 -0.032659 -0.015732 0.018838 -0.036100 -0.007122 0.034750 -0.015562 -0.000005 -0.047021 0.010691 0.026339 0.017055 -0.027819 -0.044984 -0.021676 -0.016591 -0.013778 -0.039070 0.014794 0.036142 -0.028216 0.009895 0.016065 -0.041789 -0.005301 0.005380 0.018904 -0.009061 0.023127 -0.021882 0.006255 -0.002885 -0.020796 0.047538 0.032876 -0.048331 0.004574 0.010882 0.021455 0.039683 -0.012005 -0.012809 0.017498 0.047984 -0.025916 -0.007924 0.037630 0.022818 -0.002764 -0.039169 0.004037 -0.015228 0.024065 -0.020751 0.014746 0.011673 0.013995 -0.040359 0.026994 0.022118 -0.016272 0.031418 -0.046615 -0.011809 -0.025408 0.030733 0.011522 0.037239 -0.038842 0.031107 -0.014580 0.028645 -0.008355 -0.019093 0.045911 -0.030283 -0.032781 0.000997 0.005371 0.021225 -0.011790 0.008592 0.017463 -0.014680 0.012319 0.004526 0.009208 0.047154 -0.028543 -0.030509 -0.018914 -0.002993 -0.009656 0.018909 0.037192 0.025678 0.042092 -0.024865 0.030101 -0.011824 0.026882 -0.009840 -0.024127 -0.013058 0.015374 0.014698 0.045642 -0.005234 -0.040291 -0.018299 0.003809 -0.027697 -0.008350 -0.044544 -0.042108 0.014171 -0.013666 -0.029136 -0.008356 -0.040463 -0.035761 -0.046521 0.035941 -0.004134 0.011921 0.042551 0.034946 0.011630 0.012290 -0.001653 -0.039282 0.004956 -0.033151 -0.040741 -0.016375 0.015512 0.043031 0.007745 -0.032763 0.024622 0.031179 0.044887 0.032026 0.042721 -0.026396 -0.035502 0.003586 0.031374 -0.004726 -0.021071 -0.040572 -0.023236 0.013432 0.031432 0.038120 0.009827 -0.026774 -0.014576 -0.038769 -0.000433 0.019213 0.019156 -0.016480 0.043235 -0.008837 0.007693 -0.033395 0.003051 0.018965 0.010707 0.040536 -0.023616 0.025247 -0.030987 0.039952 -0.028686 -0.017354 0.031965 -0.009000 -0.005041 0.047363 -0.017246 0.037108 0.044005 -0.029714 -0.036842 0.025245 -0.025416 -0.048651 -0.013028 -0.037823 0.000467 -0.001245 -0.039011 -0.042369 0.021918 0.008600 -0.031039 0.040475 -0.048219 0.017679 -0.028416 0.004480 0.043417 0.039764 -0.002869 0.038674 -0.003236 -0.019971 -0.022816 -0.036299 -0.007347 -0.046228 -0.031991 0.024581 -0.044991 -0.015271 0.035184 0.022760 -0.004961 -0.041010 0.014464 0.039767 -0.014908 0.018981 0.007455 0.011377 0.004982 0.011722 0.009397 0.042781 0.028563 0.040998 -0.033281 -0.007652 -0.023718 0.003927 -0.000999 -0.048025 0.013490 -0.003631 0.003637 -0.028947 0.022894 0.031609 -0.030921 0.046697 -0.048101 0.011390 0.001454 0.030375 0.005076 0.018483 0.027995 0.038171 -0.008587 0.012430 -0.007715 -0.046332 0.016258 -0.002530 0.009667 0.032979 -0.018138 0.030185 -0.001893 0.011052 0.044861 -0.042739 0.049991 -0.035658 -0.020029 -0.013546 0.010254 0.037434 -0.024601 -0.038151 0.029072 -0.003367 -0.010803 0.044249 0.037378 0.040488 0.034835 0.005096 0.043180 -0.023769 -0.003791 0.045406 -0.047194 -0.017025 -0.032255 -0.036728 -0.010348 -0.042249 0.036723 0.016154 0.007301 0.006340 0.004391 -0.023037 0.030873 0.020722 -0.034122 -0.016456 -0.001031 -0.003110 -0.038657 0.013532 -0.029933 -0.020156 0.023282 0.030891 0.002639 0.022719 -0.001334 0.004600 0.002875 0.006620 0.041451 0.037438 0.006683 -0.042865 0.044490 -0.030979 -0.008051 -0.028653 -0.005138 -0.004186 -0.010532 -0.045470 -0.031786 -0.032328 0.034453 -0.010157 0.014456 -0.033676 0.011609 0.039165 0.044125 0.020656 0.007051 0.001305 0.044242 0.049414 -0.034349 -0.028156 0.013076 -0.045045 -0.036191 -0.026567 0.022080 0.049404 0.013216 0.039788 0.046756 0.043415 0.002448 0.005720 -0.008162 0.030401 0.009079 0.041355 -0.008238 0.019683 -0.008892 -0.016165 -0.017126 -0.003123 -0.028191 0.003431 0.047109 0.022372 0.041567 0.046248 0.033227 0.040894 0.028893 0.014460 0.028559 0.026226 -0.022740 -0.017145 -0.006699 0.006223 -0.033604 0.033675 0.006501 0.013063 0.034140 0.031472 -0.014041 -0.040328 0.004616 -0.014493 -0.041725 0.002842 -0.028206 0.045668 0.015429 -0.019795 0.011546 0.045331 0.019927 0.016114 -0.032296 -0.028567 -0.030047 0.018515 -0.044764 -0.042257 -0.034245 -0.000953 -0.003718 -0.047357 0.046606 0.043536 -0.003273 0.026198 -0.002740 0.020721 0.039899 -0.031372 -0.026742 0.034421 0.041164 -0.007995 0.002749 -0.005533 -0.014233 -0.039259 0.029958 0.040525 0.043143 -0.006661 -0.040964 -0.044632 -0.043787 -0.041214 -0.038862 0.007964 0.035371 -0.040779 0.041021 -0.012850 -0.049202 0.009161 0.002167 -0.042560 -0.033591 0.035714 0.014839 -0.025621 -0.034923 -0.049479 -0.023627 -0.021483 0.008454 -0.000137 0.041426 0.026263 -0.015096 0.022980 0.035111 -0.017618 -0.018800 -0.023035 -0.040822 0.017089 0.034510 0.000471 -0.023905 -0.027373 -0.033273 -0.015975 0.009503 -0.049623 -0.004288 0.031479 0.003777 -0.017657 -0.018043 0.031015 -0.039347 0.015391 -0.034286 -0.043954 0.044850 -0.023641 -0.048837 -0.030271 0.020671 0.005073 0.043464 -0.002793 0.000413 -0.017782 -0.011142 -0.026495 0.011337 -0.005326 -0.045243 -0.031139 0.029393 -0.038816 -0.044396 -0.008778 0.001020 0.042659 -0.017153 0.041725 -0.030584 0.015630 -0.012824 -0.042214 0.028031 0.025565 -0.046819 0.032395 -0.010354 0.013131 -0.025509 -0.028475 -0.049351 -0.030006 0.004050 -0.033244 -0.014338 -0.018260 0.021522 0.021351 0.041987 -0.017660 -0.008657 0.027742 -0.041687 -0.023761 -0.004775 -0.041685 0.011947 0.029370 -0.009972 0.039463 0.028513 -0.001472 0.010730 0.049587 0.016796 -0.002116 -0.003339 0.039127 0.016498 0.037778 0.013129 0.007598 -0.025598 -0.008926 -0.016906 -0.009880 0.001740 0.011642 -0.041473 0.015186 0.043155 0.033461 -0.011304 0.044790 0.037954 -0.033082 0.028661 0.026161 -0.038516 0.017493 -0.002229 0.006185 0.046261 -0.038019 0.029056 0.030111 0.040238 -0.037973 -0.013839 -0.015871 0.039385 0.025199 -0.024436 0.021108 0.018594 0.031626 -0.003786 -0.034123 0.005639 -0.002737 -0.044974 -0.043095 0.040946 -0.025801 -0.024250 0.001223 -0.040625 0.033181 0.027782 0.021986 0.042890 0.012741 0.041424 0.031578 -0.043524 0.031757 0.006215 -0.043234 -0.042406 0.024269 0.039292 -0.001521 0.001914 -0.016394 0.035948 0.026071 0.009204 -0.032058 -0.032569 0.047690 -0.021638 -0.014591 0.018108 -0.018261 0.023139 -0.040954 -0.018500 0.011099 0.039184 -0.036892 -0.049703 0.003970 -0.022008 -0.039871 0.021433 0.019329 0.037266 0.034372 -0.003087 -0.018923 -0.027881 0.032484 0.047649 -0.012969 -0.011713 0.011965 -0.010681 0.048085 0.037848 -0.037266 -0.033966 0.009076 0.036801 0.008675 0.009559 0.003766 -0.020124 -0.014705 0.029832 -0.035643 -0.027534 0.006703 0.042257 -0.020903 0.013003 -0.010614 -0.026107 0.032337 -0.008091 -0.005592 -0.019236 0.033145 -0.015576 0.038164 0.040768 -0.017625 0.028843 0.025020 -0.006133 0.001205 -0.004054 0.035907 0.039053 0.030534 -0.040743 -0.017570 -0.026883 -0.049339 -0.015984 0.021798 0.041346 -0.011982 0.043252 -0.008711 -0.032847 -0.006012 0.033086 -0.017061 0.048140 -0.046900 -0.011585 -0.002583 0.001106 -0.030926 -0.013096 -0.040094 0.045045 0.048439 0.010961 -0.024585 -0.017777 -0.008787 0.049298 0.037447 0.037626 -0.045166 -0.023922 0.037573 -0.049670 0.012306 0.047518 0.015483 -0.029865 0.030859 -0.046349 0.009210 0.025676 0.001183 0.024576 0.022412 -0.020823 0.038242 -0.020503 -0.017562 0.032461 0.017060 0.016955 0.022542 0.046467 0.018186 0.009673 -0.014008 -0.022182 -0.039676 -0.024195 0.014595 0.009981 -0.039764 -0.021349 -0.030695 -0.012582 0.041092 -0.031091 0.041464 -0.032966 -0.034506 0.037045 -0.037943 -0.011338 -0.032743 -0.044884 -0.030551 -0.015312 0.004576 0.022360 0.024452 0.010247 -0.035849 -0.020822 0.044532 0.015264 -0.027081 0.011513 0.017172 0.007356 0.014641 0.016280 -0.022430 -0.036225 0.014307 0.006026 0.045913 -0.045697 0.045429 -0.034321 0.029694 0.049988 -0.016748 -0.012411 0.011675 0.034852 0.007418 -0.039594 0.002099 0.017133 -0.039684 0.005165 -0.010567 -0.033707 0.042951 -0.025177 -0.037085 0.025257 0.036311 -0.003409 -0.042209 0.024301 0.032576 0.000196 -0.041111 0.001081 -0.009511 -0.024566 0.015716 -0.035217 0.023699 -0.018689 0.014417 -0.017218 -0.030587 0.048713 -0.039183 0.042413 0.007722 -0.021932 0.009939 0.035816 0.035396 0.030350 0.002976 -0.040221 -0.015261 -0.036711 -0.002343 -0.000116 -0.024556 0.044274 -0.028388 -0.020346 -0.020703 -0.004055 -0.013129 0.039665 -0.006990 0.023380 0.015147 -0.027339 -0.025753 0.049042 0.032022 -0.011026 0.047523 -0.006272 -0.030064 0.048468 -0.018896 -0.011530 0.026173 0.040243 0.048149 -0.034831 -0.003220 0.013182 0.023781 -0.007068 -0.038850 0.013269 -0.034846 -0.022193 0.030379 0.034324 0.020687 0.029458 0.000929 0.016042 -0.016677 -0.037626 -0.030959 0.001131 -0.012220 -0.001375 0.025968 0.007602 -0.031108 -0.023787 -0.038317 -0.039246 -0.016669 -0.020770 0.009913 -0.016662 0.026484 0.023340 -0.028731 0.038347 -0.031467 -0.042021 -0.001134 0.035623 0.000989 0.017028 -0.027628 -0.004957 0.017995 -0.010037 0.019545 -0.028855 -0.030986 -0.008447 -0.031045 0.049332 0.016872 -0.018011 0.022892 0.033495 -0.020552 0.036553 -0.021695 -0.042476 -0.044131 -0.025792 -0.029211 -0.028558 -0.010163 0.030086 0.042896 0.046280 0.036729 0.025505 -0.004119 0.033502 -0.040478 -0.022850 -0.048349 -0.015872 0.032161 0.032934 -0.046312 -0.007248 0.017372 -0.047683 -0.047744 -0.029965 -0.023135 -0.001394 0.004539 -0.001925 -0.047837 -0.048110 -0.040101 -0.038666 0.044353 0.045009 0.048644 -0.008434 0.010599 -0.023716 -0.007521 0.001841 -0.008141 -0.007909 -0.017445 0.010461 0.015391 -0.011468 0.048367 0.017350 -0.005865 0.040761 -0.049880 -0.041205 0.026210 -0.026425 0.031399 0.038034 0.025863 -0.030343 -0.029709 -0.006864 -0.007532 0.010973 -0.018465 -0.016444 0.040682 -0.031551 0.006645 0.001521 0.012323 0.001545 0.000513 0.016980 0.019704 -0.015205 0.016755 0.025677 0.009600 0.000058 0.014973 0.016805 -0.042070 -0.003543 -0.037503 0.047430 0.023075 -0.031457 0.038553 -0.000036 0.022160 -0.001748 0.012689 -0.001863 0.010580 -0.036576 0.031808 0.031208 0.015481 0.004313 -0.024357 0.002799 -0.049283 -0.027695 0.006865 -0.002473 0.007027 0.017939 -0.030291 -0.007995 -0.035730 -0.044158 -0.014343 0.035815 -0.035284 0.029117 0.041870 -0.010923 -0.046742 0.031857 -0.016349 0.039147 -0.024837 -0.039606 0.023162 -0.024838 -0.042172 0.033509 -0.031945 -0.005377 -0.040548 0.023130 0.005656 0.043909 0.023589 -0.030963 
w2
-0.044850 -0.041815 0.047918 -0.019687 0.015271 -0.041688 0.025185 -0.011568 0.010712 -0.049653 -0.024136 0.018540 -0.018649 -0.040627 -0.037975 -0.000594 0.028697 0.006648 0.032177 0.038150 0.030388 0.005306 0.039472 -0.013955 0.017513 0.033382 0.044959 -0.008899 0.009147 -0.036004 -0.001659 0.014297 -0.027819 -0.003741 0.044610 0.037451 0.004571 0.019795 -0.024117 -0.034717 0.020143 0.001747 0.033823 -0.048506 0.011120 0.045848 0.000900 -0.010183 0.002496 -0.016923 -0.022033 -0.017116 0.038384 -0.032561 0.018929 0.005897 -0.049180 0.013888 0.046998 0.009967 0.027884 -0.004661 -0.025736 -0.049935 0.041599 -0.031126 0.037516 -0.003830 0.038670 -0.036601 0.011453 0.008812 0.015146 -0.004724 0.010306 -0.023734 -0.008876 -0.038793 0.016082 0.043620 -0.005716 0.044049 -0.023496 -0.017332 -0.038512 0.045433 0.038565 -0.037692 0.009321 0.035563 0.022276 -0.012794 -0.019097 0.046540 -0.012730 -0.027499 -0.034586 -0.025213 0.018671 -0.045916 -0.011814 -0.019877 0.012896 -0.046668 0.025399 -0.026798 -0.020402 -0.033477 -0.015591 0.045680 -0.039857 0.028693 0.039729 -0.013353 -0.038640 -0.048783 -0.017920 0.049925 -0.036475 0.041402 0.035488 0.035801 -0.021392 -0.033609 0.032341 0.015878 -0.011108 0.047755 0.040665 -0.042437 -0.048161 -0.021149 -0.012314 0.014735 -0.017817 -0.036914 0.037937 0.011781 -0.020392 -0.027654 0.007461 -0.010249 -0.048961 -0.002809 0.026398 -0.037601 -0.001592 -0.041521 -0.037676 0.011934 0.049881 0.047812 -0.002265 -0.021512 -0.035796 -0.019924 0.044366 0.003096 -0.022169 0.035032 0.010659 -0.020330 -0.036117 0.048345 0.044405 -0.003934 -0.038569 0.032342 -0.042153 -0.008961 -0.045312 0.015309 0.030790 -0.044273 -0.037501 0.007188 -0.031875 0.010908 0.015667 -0.019550 -0.027159 0.015548 -0.021737 0.020576 0.044036 -0.007534 -0.049348 0.038403 0.045562 -0.021517 0.023434 0.006221 0.008153 0.037317 0.004566 0.002558 -0.016617 0.015997 -0.015100 -0.008770 -0.042964 -0.010412 -0.043461 0.037826 -0.004686 -0.030962 -0.004985 0.013440 0.029946 -0.039318 0.043890 -0.047213 0.026230 -0.027848 0.023363 0.020266 0.014618 0.024015 0.008668 0.010180 -0.047502 -0.017897 -0.033600 0.010650 -0.030581 0.020966 -0.036792 0.002803 -0.013037 -0.001892 0.044033 -0.006001 0.037695 -0.049428 -0.018175 -0.016991 -0.030390 0.026840 0.046449 0.049556 0.037522 0.040338 -0.047657 0.013752 -0.037510 0.025706 -0.015983 0.027108 -0.000279 0.042686 -0.012712 0.002219 -0.025211 0.003689 -0.037131 -0.005792 -0.025345 -0.023923 0.047011 0.011618 0.024185 0.041044 -0.044383 0.011880 0.041615 -0.012558 0.044889 -0.038775 -0.035718 0.041338 -0.039219 -0.048196 0.031676 -0.036876 0.015556 0.044166 0.038830 0.049573 0.021275 -0.011448 0.042259 -0.041437 0.040770 -0.032952 0.012252 -0.046360 0.011256 0.036907 -0.020283 0.008267 -0.001475 -0.046098 -0.000690 0.004142 0.015782 -0.009074 0.041584 0.010671 0.002151 -0.044134 0.002009 0.012932 -0.042330 -0.016315 0.026056 0.023226 -0.022149 0.014886 0.022799 0.049126 -0.046562 0.015059 -0.042311 0.044208 0.032106 0.019941 0.047848 -0.006638 0.006848 -0.022435 -0.048371 -0.044627 -0.018533 0.000939 0.009514 0.047249 0.041864 0.001098 0.007920 -0.005985 0.006964 -0.040071 -0.043053 0.014634 -0.006386 0.033002 -0.012140 0.021465 -0.002111 -0.039341 0.020591 0.001327 0.025718 0.028280 -0.004464 0.007824 -0.001778 -0.006616 -0.048814 -0.044930 0.020949 -0.047185 -0.039557 -0.047584 0.003754 0.019957 0.049665 -0.004382 -0.028945 0.007585 0.039633 0.028019 0.017514 0.046580 -0.007347 -0.038872 0.029582 0.030513 0.032593 -0.022529 0.041172 0.003185 0.028798 0.016890 -0.018535 -0.025666 -0.025286 0.029686 0.017718 -0.024100 0.034756 -0.011333 -0.021286 0.045198 -0.008918 0.032468 0.015155 -0.009253 -0.021914 0.036210 0.048332 -0.032281 0.014229 0.015846 -0.035701 -0.043117 0.026974 0.043881 0.037396 0.009566 -0.028648 0.028568 -0.037249 -0.049849 -0.004543 -0.005784 -0.025515 0.020171 -0.026097 0.042202 0.046071 -0.041341 -0.019132 -0.025214 -0.046141 0.021951 -0.042746 0.019012 -0.037302 -0.014660 0.005223 -0.038970 0.003058 -0.030548 0.026876 0.017357 -0.023665 0.003850 0.011238 -0.036270 -0.036584 0.032590 0.042298 -0.023833 0.032741 -0.012244 0.020383 -0.042773 -0.042073 0.044286 0.049427 -0.046002 -0.047056 -0.019704 -0.021216 -0.043198 -0.047754 -0.013963 0.025814 -0.035056 0.021377 -0.018964 -0.024026 -0.025565 0.000488 -0.047150 0.041792 0.026823 0.006700 0.003029 0.040554 0.020116 -0.014381 0.032851 0.046283 -0.031641 -0.029393 0.016666 -0.024416 -0.021466 0.010952 -0.024989 -0.017468 0.013897 0.005307 0.011316 0.020698 0.007554 0.047353 -0.003488 0.022498 0.018730 0.027548 0.048472 0.043165 -0.021963 -0.048678 0.034957 -0.045140 0.008021 -0.012014 0.045413 -0.021863 0.023605 0.028265 -0.025580 0.041964 0.048872 0.041087 -0.032451 -0.022594 0.002039 -0.007440 0.009938 -0.034065 0.047867 -0.028746 0.036633 0.005421 -0.031393 -0.016855 -0.022082 0.037337 -0.039307 -0.023610 0.030502 -0.011270 -0.022288 0.015459 -0.006410 0.035733 -0.046555 -0.010997 -0.036129 0.027050 -0.032732 -0.011709 0.019014 -0.033860 -0.020622 0.036563 -0.006454 0.031417 -0.020877 -0.046517 0.047352 -0.023010 -0.025263 0.033986 0.032411 -0.006657 -0.032869 -0.039670 -0.019320 -0.022176 -0.013280 -0.038817 0.016554 0.014432 0.026641 -0.039856 0.000165 0.030086 -0.000854 0.014036 0.007135 0.016414 -0.047673 -0.023851 0.032554 -0.018295 -0.037288 -0.023900 -0.036878 -0.008165 -0.020417 -0.039526 0.018826 0.004320 0.044460 0.001237 0.047663 -0.038409 0.011566 -0.021657 -0.010585 0.048286 -0.010474 -0.044032 0.012718 -0.033833 -0.033888 -0.037117 0.046252 0.015258 0.026919 0.003387 -0.018327 0.029246 0.029537 -0.035773 -0.039049 0.042249 -0.009674 -0.025927 -0.015916 0.019909 -0.015452 -0.047090 -0.025772 -0.020993 0.004146 -0.028109 -0.009402 -0.034288 0.000235 0.030013 -0.036002 0.039760 0.035981 0.026716 -0.044073 -0.047907 0.039599 -0.047821 0.017351 0.016518 0.005566 0.049024 -0.004236 -0.014897 -0.036749 0.006715 -0.022648 0.003576 0.030789 0.011436 -0.026515 -0.034663 0.014346 -0.002287 -0.005656 -0.031508 0.019604 0.034942 -0.015795 -0.030161 0.014955 -0.001797 -0.040401 0.000936 -0.025081 -0.034474 0.003029 -0.035483 -0.032295 -0.029620 0.031035 0.023271 -0.030596 -0.023201 -0.041625 -0.017345 0.033515 -0.014273 0.036231 0.014304 0.047163 -0.040284 0.029640 0.011508 0.007429 -0.026016 0.030000 -0.022966 -0.041074 -0.035795 -0.003127 0.023881 0.012408 0.006472 -0.025183 0.037327 0.021998 0.027845 -0.048156 0.039703 0.048225 0.032879 0.012974 -0.032371 -0.040322 0.021349 0.000284 0.043193 -0.042925 -0.013485 0.007497 -0.045762 -0.003769 -0.012863 0.015746 -0.046340 0.011121 -0.004253 -0.019306 0.020047 0.009952 0.027567 -0.006072 -0.027640 -0.015961 0.018744 -0.040314 -0.043964 -0.003410 -0.038469 0.045739 -0.005185 0.044410 0.008713 0.012444 -0.045912 -0.019938 -0.037272 0.047281 -0.012863 -0.000757 0.004778 -0.008625 0.045474 0.041915 -0.042878 0.049134 0.003036 0.002869 -0.020172 -0.026917 -0.037180 -0.042605 0.017011 -0.014820 -0.008566 -0.014244 -0.005133 -0.002530 0.032345 0.006397 -0.006791 -0.022840 0.000807 -0.048078 0.039605 0.004896 -0.018016 -0.047667 0.002177 0.019121 0.001576 -0.043045 -0.039504 -0.002951 0.048870 -0.032382 -0.003816 0.001906 0.020486 0.026012 0.024990 0.033307 0.033407 -0.007999 -0.031513 -0.025159 0.027756 0.013354 0.022311 0.010102 -0.030249 -0.034480 0.037262 0.020558 -0.032558 0.026867 -0.024546 -0.000574 0.029200 0.027631 -0.031453 -0.019225 0.034587 -0.020957 0.027825 0.033457 -0.003339 -0.025992 -0.014637 -0.032853 -0.049979 -0.039647 -0.049547 0.033428 0.002354 -0.031060 -0.041731 -0.019890 0.032294 0.030580 0.040212 -0.047955 0.046100 0.027474 0.022603 -0.036458 0.004341 0.048057 0.012968 -0.016460 0.025688 0.031515 0.014316 0.010275 -0.039442 -0.007860 -0.006268 0.007219 0.016149 0.029095 0.024365 0.016169 0.039448 0.024818 -0.000403 -0.008198 0.043759 0.007865 0.021912 0.026052 -0.011555 0.012124 0.028097 -0.015455 -0.010403 0.000700 -0.001913 0.043938 -0.001243 -0.038944 -0.022522 -0.025554 0.042571 0.041794 0.034721 -0.046871 -0.016066 -0.021547 0.010348 -0.049917 -0.042452 -0.015287 0.016252 0.046996 -0.040468 -0.034151 -0.011202 -0.046709 0.023714 -0.039290 0.029343 -0.037841 0.022833 0.007440 -0.003295 -0.037569 -0.041860 0.044792 -0.043631 0.006897 -0.044153 -0.016152 0.031342 0.048418 -0.024358 0.016063 -0.048453 0.009576 0.044516 0.011895 0.009659 -0.047936 0.046609 -0.024089 0.049060 -0.043859 -0.008240 -0.012141 -0.040568 -0.034526 -0.001432 0.038775 -0.022366 -0.028599 -0.003785 0.024338 -0.016168 0.004355 0.019130 -0.009799 -0.038748 0.024977 0.024049 0.042594 0.023396 0.049691 0.008657 0.024943 0.009266 0.003173 -0.013162 -0.031075 0.005237 -0.016553 -0.005164 0.004297 -0.010412 0.036596 0.042155 -0.000981 -0.047930 -0.009277 -0.012206 -0.020296 0.012124 0.034009 -0.045958 0.045956 -0.011636 0.023172 -0.013842 -0.000384 -0.001851 -0.039793 -0.007790 -0.028455 -0.040103 -0.049133 0.046487 0.019164 0.004040 -0.016674 0.038089 -0.040723 0.016773 -0.017075 0.013574 -0.043640 -0.030479 0.005729 0.005380 -0.028410 0.046452 0.043174 0.001295 0.008576 0.027183 0.005337 0.004533 -0.034452 -0.021491 0.040691 0.015163 0.026658 -0.049102 -0.042627 0.048203 -0.039205 -0.041760 0.044691 0.029960 0.012280 -0.021983 0.018049 0.021556 0.044789 -0.049026 -0.014871 -0.048851 -0.029504 0.040859 0.006530 -0.007913 0.037312 -0.000296 0.043381 -0.004112 -0.023113 -0.001281 -0.049579 -0.007566 0.027228 0.041114 -0.042402 0.003887 0.042011 -0.035027 0.002090 -0.047194 -0.026789 -0.003220 0.032766 0.035491 0.024797 0.000815 0.007048 0.019586 0.001790 0.042178 0.020735 0.022285 0.033037 -0.022735 -0.035628 0.020349 0.026970 -0.042244 -0.033763 -0.046144 0.006473 -0.033342 -0.003710 -0.016299 -0.042229 0.003888 0.037588 0.049781 0.018859 -0.010323 -0.047412 0.042070 0.036458 0.035354 0.027561 0.011254 -0.013831 -0.015391 -0.019159 0.037959 -0.023213 -0.048424 0.010244 -0.040176 -0.021159 0.024615 0.030173 -0.044190 0.032369 0.046410 -0.040334 -0.011157 -0.036932 0.005956 0.022544 -0.029162 -0.040156 0.010132 -0.029380 0.028703 0.049809 -0.026793 0.020773 0.036267 -0.041438 -0.001665 -0.002479 -0.005269 0.032943 0.028362 -0.017311 -0.040270 0.029938 0.042933 -0.030445 -0.041220 0.017548 0.049728 -0.035411 -0.000082 0.046137 -0.025745 0.038760 -0.040795 0.030211 0.011305 -0.019957 0.040054 -0.028564 0.000663 0.018757 -0.028754 0.023871 -0.010470 -0.042487 0.032432 0.037865 0.005034 -0.022837 0.020808 -0.016604 0.009853 0.030538 -0.036665 0.002786 -0.049907 -0.027886 -0.029666 0.049821 -0.013296 0.020252 0.045958 0.010959 0.009012 -0.044837 -0.008831 -0.029683 -0.014794 -0.018777 -0.008247 0.035869 0.049980 0.012999 0.009740 -0.010490 0.020512 -0.007828 -0.022625 -0.024454 0.019336 0.048183 0.008942 -0.020811 0.028721 0.022277 0.031974 0.028814 0.044391 -0.047692 0.028635 -0.018905 0.022560 0.024593 0.042053 -0.018428 0.029756 -0.016778 0.001889 -0.035038 0.014446 0.043642 -0.049169 0.014425 0.006641 0.010571 -0.046064 -0.022847 -0.047256 -0.018690 0.002699 0.022079 -0.020507 -0.038359 -0.048732 -0.041786 0.033918 0.033242 0.037029 0.028309 0.035550 0.015664 -0.040596 0.008110 -0.009743 -0.048542 0.039682 -0.029987 -0.015320 -0.008429 -0.015025 0.049125 -0.014787 -0.014193 0.013551 0.041854 0.046378 0.017486 -0.030993 0.049122 0.048797 0.021706 0.021201 -0.021710 0.033346 0.022469 -0.013495 0.017264 0.005711 -0.026466 -0.004427 -0.008738 0.039198 0.004977 0.049371 -0.020544 0.006435 0.039054 -0.000531 0.041115 -0.019375 0.034444 0.040240 0.015837 -0.029749 0.003791 0.007691 -0.033371 -0.028723 0.026698 -0.034250 -0.029926 -0.001597 0.036951 -0.001635 -0.018250 0.009420 0.034869 0.049014 -0.034869 -0.041596 -0.005413 0.006392 0.047602 0.049565 0.005764 -0.022942 0.005999 -0.005183 0.026527 -0.002886 0.025442 0.010971 -0.012646 -0.008721 0.031222 0.041144 0.048971 0.047851 -0.037579 0.025668 -0.036399 -0.017505 -0.025928 -0.049449 0.030860 0.005822 0.009972 0.015729 0.004836 0.025103 0.024133 0.049424 -0.018505 0.021735 0.048988 0.037259 0.048793 0.004988 -0.017924 0.025320 -0.047899 -0.042482 -0.013709 -0.010545 -0.001203 -0.032487 -0.019401 -0.002232 -0.034637 -0.006979 -0.026563 -0.021036 0.025516 -0.002491 -0.020484 0.006377 -0.046669 0.039487 -0.027894 0.008168 0.014590 0.046239 0.007592 0.046085 0.017974 0.006580 0.033344 0.016767 -0.038432 -0.034580 -0.007913 -0.036330 -0.027062 0.028379 0.003125 0.021735 0.045892 0.033724 -0.030497 -0.038745 -0.023255 -0.007060 -0.009781 -0.047739 0.040449 0.019735 0.008638 0.043780 0.009222 0.030744 0.001948 -0.026187 0.026983 -0.040461 -0.030102 -0.005043 0.016120 -0.046758 -0.038275 0.027688 -0.031338 0.003812 0.041358 -0.008401 -0.017809 -0.005517 -0.036666 -0.021918 -0.021793 -0.017163 -0.010663 0.004951 0.025777 0.029557 0.007212 0.016226 -0.000708 -0.034150 0.010006 -0.041486 0.046594 -0.038047 -0.017673 0.023577 -0.028507 0.002225 -0.031466 0.037613 0.005467 -0.019741 0.015301 0.024128 0.034071 0.006658 -0.034272 -0.033738 -0.048859 -0.020938 -0.005655 -0.020653 0.011899 0.033682 0.034299 -0.012324 0.013239 -0.008489 -0.046098 -0.037469 0.007361 0.013908 -0.028955 0.003955 0.025861 0.003372 -0.022468 0.047354 -0.044403 -0.003934 0.034967 0.011064 0.026326 0.000268 -0.014807 0.010397 -0.043074 0.000920 0.026659 -0.041932 0.029982 -0.028996 -0.012585 -0.008118 -0.045314 -0.028286 0.029558 0.017925 0.013225 0.033460 0.030456 -0.029414 -0.002632 -0.048498 0.024540 -0.026771 0.004874 -0.047928 -0.029416 0.010471 -0.001861 -0.044449 -0.028465 -0.025536 0.005819 0.006728 0.034861 0.012746 -0.042352 0.011519 0.020813 0.037630 0.032524 -0.041772 -0.020488 0.037210 -0.020059 -0.040930 0.005135 0.043167 0.042530 -0.014409 -0.036248 -0.010102 -0.012908 0.038293 0.013127 0.041967 0.040365 0.033711 0.002438 -0.011496 0.039262 0.023973 0.012968 -0.004919 -0.019299 -0.002172 -0.042173 -0.011651 -0.040652 0.028640 -0.024021 0.041872 0.036869 0.005491 0.029083 -0.033189 0.014561 -0.015784 -0.040023 0.007090 0.019807 -0.026271 0.046988 -0.043101 -0.037978 0.010115 0.048865 -0.047612 -0.006174 0.001303 -0.009108 -0.016912 -0.024724 -0.046141 0.028170 0.005977 0.001688 0.035997 0.044326 0.011035 0.014637 -0.029694 0.002907 0.001506 0.025797 -0.018012 0.018317 -0.009643 0.016203 0.028294 0.047447 -0.013990 -0.047977 0.044435 -0.007091 -0.035954 0.004551 -0.008226 -0.033566 0.048377 0.043077 0.007325 -0.018535 -0.031647 0.011184 -0.040365 0.024330 -0.037128 0.045632 0.018657 0.023907 0.010270 0.038962 -0.023186 -0.038224 0.014759 0.008802 0.030093 -0.044884 -0.024994 0.008387 -0.047437 0.011016 0.010410 0.046999 -0.046075 0.024456 0.001549 -0.004302 0.040889 -0.000074 -0.011225 -0.001786 0.031391 0.007128 -0.040601 0.041026 -0.018542 -0.027730 0.036658 -0.049885 0.046178 -0.003072 0.039077 -0.027008 0.008704 0.003836 0.031795 -0.011203 0.008951 -0.043200 0.047183 0.011515 0.017816 0.007593 0.008514 0.021741 -0.017951 -0.039937 -0.032561 -0.027062 0.009989 0.006214 0.021152 -0.008620 -0.036658 0.030551 -0.017594 -0.005199 -0.047179 -0.030936 -0.005085 0.048999 0.015992 -0.016008 -0.028009 -0.025304 0.037828 -0.046214 0.013493 -0.003220 -0.039414 0.010677 -0.041705 0.028402 -0.031730 0.016808 0.000143 0.000318 0.026871 0.017582 0.023256 -0.013140 -0.026203 -0.005591 0.028239 -0.012861 -0.025040 -0.039355 0.031940 -0.022219 -0.020290 -0.023145 -0.023220 0.045702 0.010847 -0.001229 -0.029602 -0.001325 0.002557 0.033891 0.045455 0.013143 -0.005432 -0.046250 -0.008455 0.012837 0.020558 0.041688 -0.036844 -0.002572 0.009271 0.036412 0.034288 0.033068 -0.019179 0.012527 -0.029793 0.005780 0.023173 -0.047854 0.033561 -0.047118 -0.020998 -0.039659 0.048584 0.039849 0.009112 -0.031017 -0.011476 -0.038331 -0.047126 -0.016021 0.024813 -0.002558 -0.012271 -0.033642 -0.039721 -0.041714 -0.041953 -0.026566 0.005715 0.017317 -0.040154 -0.009997 0.000385 -0.009333 -0.047470 0.020592 0.046448 0.025703 0.022738 0.030009 0.028585 -0.048261 0.040350 0.027169 0.041588 -0.000537 0.046152 -0.019887 0.011132 0.049026 0.014092 -0.014055 -0.003533 -0.048179 0.002303 0.006746 -0.039893 0.010349 0.030181 0.015822 -0.022333 0.040027 -0.044176 0.028052 -0.019305 -0.041646 -0.001357 -0.022858 0.034057 -0.028619 -0.042849 0.012642 -0.026879 0.047502 -0.010189 -0.035291 -0.003036 -0.014037 -0.005178 -0.041903 -0.015012 -0.041087 -0.005959 0.031456 -0.039266 0.046344 -0.011798 -0.029159 0.006693 -0.031617 0.036663 0.034360 -0.041590 0.042488 0.012411 -0.010895 -0.049158 -0.038945 0.016247 0.034899 -0.017564 0.023398 -0.002459 0.005557 0.020900 0.037352 0.020266 -0.032136 -0.026686 -0.034912 -0.024039 0.008303 -0.025998 0.020002 -0.010242 -0.015264 0.016346 0.027960 0.005578 -0.026960 0.046343 -0.007759 -0.042601 -0.045247 -0.015271 0.019811 -0.006142 -0.014430 0.030865 -0.039895 -0.029531 -0.036698 0.033503 0.018010 0.018859 0.004403 0.005362 -0.010875 0.022268 0.028676 0.004213 0.048229 -0.013022 0.028215 0.018231 0.026737 -0.037049 -0.015422 0.004697 0.018529 0.007617 0.001040 -0.039231 0.015016 0.005793 -0.004502 -0.015173 0.049651 0.031069 -0.034307 -0.040244 -0.048462 -0.021006 0.043259 0.019548 0.047853 -0.002338 -0.025090 -0.013022 -0.030070 -0.046414 0.041191 -0.031841 -0.009436 0.019406 0.036390 -0.032699 0.032358 -0.029032 0.021998 0.000886 0.028585 -0.026962 0.011656 -0.006399 0.028831 -0.042846 0.028429 0.028482 0.038222 0.044121 0.038238 0.039760 -0.026885 0.031496 0.009308 -0.029032 -0.020841 0.034218 0.007946 -0.000911 0.037804 -0.000863 0.017248 -0.021632 -0.031456 0.003638 -0.004332 -0.049099 0.024606 -0.032334 0.001788 0.003191 -0.009295 -0.036557 0.046792 -0.030464 -0.029403 0.025221 0.048018 -0.041181 0.019342 0.036256 0.048580 0.042457 0.017752 0.007888 -0.036575 0.046911 -0.007894 0.021372 -0.004000 -0.020090 -0.029491 -0.036753 0.008278 -0.010947 0.016885 -0.046054 -0.010045 -0.008509 -0.028387 0.041742 0.044682 0.012317 -0.044815 0.041475 0.031853 -0.024217 0.016696 0.029871 -0.015398 -0.013962 0.016127 -0.016818 -0.021504 -0.016121 0.041070 -0.008079 -0.019210 -0.016824 -0.036707 0.026789 0.013086 -0.016198 0.040036 -0.028636 0.022855 0.006921 -0.024690 -0.037190 0.048412 -0.003077 -0.045448 0.043095 -0.040760 -0.040262 0.034569 0.041093 -0.014479 0.001265 0.020964 0.020122 0.037304 -0.012909 -0.046696 -0.034201 0.020969 0.044374 0.007720 -0.048241 -0.022450 0.021013 0.028548 0.040636 -0.045185 0.018584 -0.038001 0.027670 -0.024495 -0.012691 0.040479 -0.026082 0.034232 0.045032 -0.032987 0.043472 -0.045231 -0.048418 0.034565 -0.009710 0.002847 0.005530 -0.039588 -0.009849 0.042621 -0.036284 0.005950 0.013590 -0.041911 -0.036331 0.015349 -0.014361 0.034682 -0.006103 -0.023725 0.039497 -0.037519 -0.011726 0.017166 -0.012014 0.025584 0.007646 0.011904 0.009816 0.002678 0.028917 0.003288 0.007447 0.030499 -0.012147 0.047737 -0.016654 0.043382 -0.041852 0.023497 0.036004 -0.028136 -0.020553 -0.000406 -0.020046 -0.006884 -0.035057 0.015594 -0.022202 0.008840 0.041868 -0.032705 0.021320 -0.019858 0.034461 -0.040693 -0.044274 -0.007893 0.021211 0.015542 0.044785 0.000128 -0.031170 0.002230 -0.019374 0.006683 -0.000032 0.013974 0.000066 0.008117 -0.012530 -0.013931 0.029982 0.016917 0.035665 -0.040064 -0.039967 -0.049392 0.025531 -0.012169 0.009448 0.017398 0.005127 -0.019232 0.047540 -0.010413 -0.009925 -0.046734 0.031694 -0.038714 0.018808 0.026478 0.011414 0.037638 -0.021290 0.042040 -0.005679 0.028678 0.006014 0.044388 -0.013205 0.043486 -0.019541 -0.033224 0.010401 -0.033876 -0.023288 0.020434 -0.033269 -0.047758 -0.041735 0.026179 
w3
-0.025067 0.046534 -0.011497 -0.034500 -0.048196 0.034044 -0.028100 -0.016308 0.012975 0.035786 -0.006283 -0.025930 0.014825 -0.049533 -0.001321 0.000960 0.040877 -0.011557 -0.037709 0.048373 0.040100 -0.004096 -0.013869 0.001278 -0.014437 0.006202 -0.011908 0.010956 0.006617 -0.017488 0.011962 0.028908 -0.019035 0.032220 0.021293 0.007352 0.013009 0.023393 0.032852 0.048246 0.011735 0.047696 -0.015281 -0.047256 -0.029925 0.046632 -0.031273 -0.015123 0.042890 0.042948 0.047690 -0.024423 0.003555 0.009839 -0.026359 0.004822 -0.037467 0.035203 -0.038830 -0.011412 -0.026798 -0.036717 -0.039240 0.041620 0.015257 0.017834 -0.015132 -0.026354 0.042381 -0.025170 -0.008429 -0.048602 -0.017829 -0.048644 0.024547 0.024587 0.025164 -0.010322 -0.013970 0.039573 -0.034134 0.014235 0.000817 -0.010843 0.021367 0.009220 -0.006360 0.017042 -0.002781 -0.030849 -0.041659 -0.030484 0.031607 0.019428 0.040491 -0.031075 -0.033592 0.007092 0.021042 -0.039576 0.010236 0.005347 -0.019737 0.029686 0.040786 0.049248 0.042575 0.032633 0.027957 0.041820 -0.038937 0.024806 0.043905 0.044697 -0.021853 -0.042644 0.024765 0.042259 0.035091 0.032510 0.020782 0.025005 -0.049477 -0.012460 -0.040301 -0.003072 -0.009895 -0.001767 0.003632 0.048957 -0.001949 0.020161 0.019015 -0.022155 -0.015635 -0.020016 0.042114 0.018505 0.012628 0.021117 -0.014596 0.043089 -0.010221 -0.040481 0.034252 0.025189 -0.035212 0.005120 -0.042229 -0.012091 0.043320 -0.002716 0.022883 0.028071 -0.028167 -0.042162 0.017232 -0.017254 -0.007750 -0.049578 0.000740 0.008806 -0.029038 -0.000669 0.046891 0.020869 0.005133 0.025646 -0.016059 0.013528 -0.047096 -0.036989 0.022293 0.027148 0.038022 -0.008954 0.003182 -0.045711 -0.036222 -0.047123 -0.009140 -0.049120 0.041899 -0.025990 -0.019758 0.031613 0.008903 -0.046717 -0.009618 -0.004260 0.008001 0.017165 0.036637 0.035327 -0.024926 -0.038917 0.011951 0.011928 0.038489 0.029689 0.023475 0.001878 0.005927 0.013575 -0.014409 -0.025287 0.046100 -0.045225 0.013332 0.033151 0.028307 0.004340 -0.043802 0.044108 -0.047795 -0.036582 -0.014901 -0.041942 -0.029544 0.037335 0.030947 -0.000360 -0.046075 0.009784 -0.005483 0.005663 -0.012830 0.013083 -0.023728 -0.011945 -0.019013 -0.045843 -0.033231 0.007112 0.033849 0.043273 0.006495 -0.008157 0.047328 -0.022322 -0.005438 0.014670 0.043345 -0.024900 0.034943 -0.001906 -0.035371 0.032017 0.014467 0.018624 0.033577 -0.036888 -0.045190 -0.049507 0.006582 -0.006017 -0.038488 0.032877 -0.013595 -0.025526 0.021133 -0.012721 -0.025180 -0.032841 0.008426 -0.012397 -0.002320 0.032076 -0.044330 0.004627 -0.039261 0.013397 -0.042738 -0.022893 0.004252 0.015015 -0.025851 -0.038855 -0.028409 -0.011744 -0.035913 -0.027980 -0.023427 -0.035744 0.036664 0.044495 0.017492 -0.030347 -0.045833 -0.031579 0.048342 0.033803 0.035730 0.021460 -0.026747 0.037338 0.035574 0.049107 -0.036547 -0.005610 0.032245 0.047519 0.046778 -0.025509 0.013933 0.009364 -0.023652 0.034767 -0.011884 -0.030601 0.015942 0.048710 -0.033906 0.013663 -0.038821 -0.020336 -0.003063 -0.006839 -0.005644 -0.005340 -0.039435 0.020565 -0.002809 -0.001010 -0.038442 -0.003324 0.025126 -0.020983 -0.006798 -0.029233 -0.049268 -0.002195 0.027614 0.041385 0.008620 -0.019741 -0.009932 -0.043903 0.006155 0.022566 -0.026524 -0.004786 0.014629 0.039821 0.016911 0.012212 0.011019 -0.034687 -0.049015 0.010602 -0.007257 -0.021211 0.041685 0.020070 0.039972 -0.034446 0.011878 -0.037951 -0.015001 -0.015662 -0.037542 0.019552 -0.043432 -0.037891 0.041563 0.017157 0.013573 -0.032883 -0.019169 -0.046901 -0.020178 -0.015749 0.029421 -0.031793 -0.001830 -0.033671 -0.000906 -0.015895 0.020747 0.013215 -0.031074 0.046616 -0.023682 -0.012241 -0.049081 0.027952 0.009512 -0.027560 0.008503 0.003353 0.043191 0.017301 0.005564 0.047948 -0.002379 0.038621 0.041535 -0.000952 0.048969 0.025001 -0.022335 -0.019371 0.015155 -0.023891 0.043716 -0.019669 -0.000856 -0.020807 0.049039 -0.018982 0.038303 -0.036793 -0.045124 0.047691 -0.000939 -0.046266 -0.024356 0.013902 0.037432 -0.035543 0.019474 0.018055 -0.007580 -0.026674 -0.025611 0.038119 0.023984 0.042531 0.013581 0.032706 0.012913 0.039368 -0.029198 0.029356 -0.006718 0.039382 -0.011398 -0.018626 0.004685 -0.027519 -0.040956 0.041766 -0.038074 0.011887 0.024518 0.038149 -0.018968 -0.024012 -0.019213 0.010068 0.049158 0.036826 -0.043114 -0.031218 0.022899 -0.009355 0.001863 0.014970 -0.033292 -0.010705 0.021450 -0.021343 -0.045039 0.004316 0.009988 -0.040182 0.013833 0.046906 -0.035156 -0.017710 0.006952 0.019686 -0.044654 0.022604 0.011514 -0.036720 -0.010656 -0.014555 0.046581 0.030053 -0.045855 -0.034284 0.036515 -0.011304 -0.021689 0.039102 -0.006079 0.044078 0.043445 0.021320 0.028582 0.037922 -0.023464 0.012230 -0.036872 0.029686 -0.017846 0.035250 -0.041977 -0.029971 0.044933 -0.028403 0.017920 0.038119 0.032358 -0.033677 -0.005962 0.028865 -0.022388 0.043690 0.033378 0.008013 0.018777 -0.015799 0.017209 -0.036865 0.013361 -0.049005 0.000407 0.042645 -0.001447 0.043705 -0.036787 0.013165 -0.036336 0.031564 -0.019768 -0.037426 0.032840 0.025809 -0.048995 -0.037809 -0.026324 0.045647 -0.047700 -0.043151 0.047261 -0.006556 0.023123 0.001298 0.013465 0.033829 0.022439 0.042706 -0.006822 -0.044672 0.007459 -0.041449 -0.019296 0.005219 0.042491 0.033856 0.012621 -0.049775 -0.016091 -0.027469 0.034386 0.041071 -0.047237 -0.037896 0.002292 0.040126 -0.015050 0.040887 -0.047126 0.048657 -0.041827 0.035117 -0.040187 -0.043462 -0.013134 -0.008904 -0.014571 0.028077 -0.034057 0.034133 -0.042387 0.027986 0.022935 -0.041782 -0.035022 0.021175 0.039388 0.043945 -0.008366 -0.007077 -0.020449 0.049752 -0.033815 -0.046829 0.018011 -0.049637 0.011564 -0.031812 -0.002779 -0.039691 -0.016720 0.035350 -0.012225 -0.028131 0.029777 0.007909 -0.001190 0.024308 -0.014510 0.047123 0.014784 0.029125 0.025834 0.010848 -0.026281 0.035254 0.002640 0.029667 -0.000102 0.019823 0.016328 -0.010996 0.035392 0.030133 0.040792 -0.025617 0.024741 0.031925 -0.049178 0.023631 -0.036071 0.031541 -0.020512 0.006983 0.012744 -0.040937 0.004538 -0.005790 0.011379 0.010813 -0.048401 -0.042252 0.038705 -0.023084 -0.017555 -0.035931 0.009431 -0.037057 0.006817 0.018306 0.046732 -0.001366 -0.024564 0.041201 -0.032812 -0.011014 -0.012791 0.045127 -0.013593 -0.034558 -0.027411 -0.034774 -0.024881 0.020940 0.048094 -0.048502 -0.033386 -0.003904 -0.007024 -0.021135 0.039310 0.028951 -0.035415 0.002434 0.046120 -0.030156 0.047386 -0.049271 0.013238 -0.045559 -0.039085 0.006158 0.006071 0.019579 -0.010449 0.009211 0.016294 0.005381 -0.037761 -0.018129 0.025691 -0.022932 0.036784 0.045581 0.049467 -0.038646 -0.044040 -0.012090 0.019767 0.011078 -0.044068 -0.011820 0.008450 0.003106 -0.048624 0.029048 -0.013308 0.000143 -0.016085 0.023498 -0.004254 -0.006238 0.002364 -0.036263 0.039161 -0.018551 0.045104 0.017320 0.013190 -0.025756 -0.044597 -0.008366 -0.040591 0.015571 -0.012499 0.026705 -0.026079 -0.015047 -0.047860 0.048415 -0.026494 0.036395 0.049493 0.022164 0.024141 -0.022751 0.049700 -0.028360 0.010660 0.002432 -0.023720 0.031407 -0.000395 -0.023515 0.015051 -0.006954 0.004764 -0.042833 0.033156 -0.033060 0.025739 -0.013158 -0.036928 0.034548 -0.004306 0.021892 0.016118 -0.027826 0.019660 0.017467 0.023559 -0.026732 -0.010046 0.032580 -0.040233 0.030407 -0.006291 0.010945 0.025732 -0.019488 0.032473 0.043399 0.005702 0.014314 0.014232 0.010073 -0.007707 0.016114 -0.036224 -0.044643 -0.001786 -0.040952 -0.046987 -0.001297 -0.034514 -0.049830 0.031618 -0.003449 -0.040858 0.012682 -0.007355 -0.038835 -0.043905 0.017186 -0.024026 -0.006586 0.008306 0.016111 -0.027544 -0.009936 0.044028 -0.014098 -0.016198 -0.037034 0.043318 -0.033682 0.048402 -0.029098 -0.045238 -0.025631 0.010631 -0.045075 -0.029755 0.030256 0.035849 0.030644 0.010553 0.005524 0.048999 -0.012700 -0.005863 -0.021719 0.031100 -0.002962 -0.012729 -0.033401 -0.010810 -0.033161 0.042559 -0.047864 -0.032585 0.008285 0.049326 0.022324 0.032299 0.040643 0.013241 0.018976 0.018107 -0.019796 0.037420 -0.046719 0.018326 0.036044 -0.032785 -0.010708 0.020960 -0.037401 -0.038613 0.018611 0.044546 -0.029879 0.028178 -0.047871 -0.044890 0.001664 0.029135 -0.030861 0.025064 -0.041655 0.043364 -0.023091 -0.004785 -0.015390 -0.025570 0.000286 0.012476 0.026764 0.009504 0.036939 -0.038775 0.007144 0.043546 -0.012180 0.031466 0.010889 0.043801 -0.010846 -0.022694 0.045617 0.026985 0.020713 -0.033689 0.030115 -0.023630 -0.009571 -0.044345 -0.022045 0.023856 0.017812 -0.038061 -0.019849 -0.033501 -0.005244 -0.006932 0.045541 0.036276 0.009515 -0.036269 0.028402 -0.043317 0.027696 -0.033595 -0.038460 0.021425 -0.004418 -0.041947 0.039104 -0.004963 0.018358 0.024233 -0.041842 -0.019847 0.013096 -0.042698 0.033985 0.010330 -0.023678 0.017332 0.016996 -0.032786 -0.027878 0.038310 -0.000181 -0.004914 -0.028549 0.032076 0.029828 0.047281 0.006113 0.034423 -0.031433 -0.048221 -0.028511 0.032752 -0.042131 -0.048939 -0.024767 -0.008784 -0.027283 0.043229 -0.044378 0.023776 0.037533 -0.021625 0.025640 0.033744 0.007551 -0.010903 0.004634 0.017524 -0.028186 0.042493 0.007956 -0.027901 -0.029988 -0.025159 0.040632 -0.038915 0.019674 -0.028189 0.002257 -0.010479 0.041079 0.038847 -0.049534 -0.041784 -0.025044 0.019327 -0.015581 0.013585 -0.043247 0.030066 0.037043 0.025550 -0.019390 -0.047969 -0.047083 0.042675 -0.029830 -0.010291 -0.012107 -0.007083 -0.001366 -0.004239 -0.046331 -0.012515 0.047771 -0.042193 -0.041298 -0.008469 0.030719 -0.027822 0.035115 0.027632 0.046375 -0.024078 0.015266 0.047117 0.031082 0.046953 0.002224 0.045172 0.001989 -0.015192 0.036336 -0.049998 -0.030099 0.000692 -0.012967 -0.039699 -0.004335 0.017677 -0.044939 -0.025170 -0.042328 0.020893 0.006222 -0.040110 0.019044 0.018902 -0.028962 -0.027565 0.041085 -0.004045 -0.048549 0.011527 0.042478 0.008045 0.043997 0.033681 -0.045340 0.011565 -0.029361 0.019093 -0.033847 -0.004937 -0.043101 0.028130 -0.009375 -0.023897 0.030340 0.039191 -0.033167 0.020356 -0.019888 -0.037500 -0.041390 0.045653 -0.004480 -0.031068 -0.047259 0.048864 -0.018507 -0.042375 -0.048921 -0.035806 -0.028642 0.004236 0.000621 -0.000978 0.028629 -0.034495 -0.014413 -0.033512 0.025904 -0.007220 0.049415 0.038286 -0.031361 -0.046975 -0.020361 -0.048864 -0.029396 0.039188 0.029963 0.001958 0.049733 -0.004169 0.028621 -0.033573 0.047739 -0.016829 -0.049148 -0.021939 -0.032632 -0.010792 -0.001695 0.048004 0.045715 -0.009866 -0.024598 -0.015730 0.009555 0.010455 -0.007580 0.042702 -0.013910 -0.012687 -0.002670 0.006433 0.046461 -0.038295 -0.014014 -0.036325 0.046901 -0.042621 -0.004099 -0.002563 -0.028249 -0.006368 0.034774 -0.045669 0.012207 0.007806 -0.042981 0.024235 -0.040119 -0.001755 0.045650 0.027567 -0.034270 -0.035147 -0.023404 0.017086 0.020182 -0.037482 -0.002948 0.025820 0.008493 -0.031204 -0.002136 0.018991 0.028972 -0.046389 0.029157 0.017172 0.016125 0.006517 -0.005684 -0.008932 -0.015678 0.019454 0.020436 0.040632 0.028899 0.044441 -0.047540 0.034509 0.030669 0.006053 0.019299 0.004714 -0.044749 -0.021855 -0.015165 0.014066 -0.027201 0.000530 0.028794 -0.027836 0.000591 0.034456 0.030037 -0.015518 0.007085 -0.029466 -0.036238 0.011807 0.036479 0.018580 0.009165 0.040470 0.016166 0.025199 0.032163 -0.047348 -0.036032 0.035804 0.006073 0.004712 -0.039178 -0.010458 0.000493 -0.006403 0.041301 0.008285 -0.005177 -0.017569 0.039755 0.005948 -0.045006 -0.045329 -0.004292 -0.037033 -0.039238 -0.035061 -0.007076 -0.003833 0.005829 -0.019611 -0.048059 0.047598 -0.012571 0.007752 -0.012341 0.049101 0.022301 0.011614 0.044248 -0.030210 -0.007740 -0.023407 0.039209 0.028601 0.012524 0.042170 0.047663 -0.038772 -0.030204 0.012276 0.032681 -0.049892 0.015149 0.022991 -0.013696 0.014406 -0.022491 0.013747 0.013758 0.011757 0.001338 0.040747 -0.006306 0.034093 0.020955 -0.029055 -0.042255 -0.041381 0.032775 -0.017709 0.024390 0.047642 0.037695 -0.031382 -0.046262 0.027736 -0.015698 -0.045923 0.020457 -0.008515 -0.015461 0.045049 0.033483 -0.034821 0.035277 0.035337 -0.005833 0.011567 -0.005631 0.033316 0.010560 -0.046817 -0.020466 0.022857 0.045431 -0.008596 0.026771 0.022255 -0.009878 -0.023488 -0.015095 0.035066 0.044828 -0.039066 -0.023182 0.037305 0.005301 0.032239 0.047749 0.034827 0.019437 -0.026849 0.012685 -0.043537 0.032841 -0.021795 -0.005176 0.046817 0.009905 0.028849 -0.048000 0.024101 0.006642 -0.007864 -0.038565 -0.002429 0.003194 -0.022919 0.016128 -0.031315 0.016519 0.016715 0.010162 0.000995 0.021282 -0.043210 0.045997 -0.019417 -0.012770 -0.042971 0.049682 -0.020462 -0.024678 0.018753 0.040164 -0.009580 -0.015672 0.018026 0.020666 -0.035443 -0.001135 -0.034769 -0.047762 0.047501 -0.031467 0.038134 0.009131 0.021090 0.024292 0.025904 -0.022719 -0.028861 -0.026541 0.006099 -0.041814 -0.013926 0.042004 -0.048087 0.047118 -0.016290 -0.046055 -0.016135 -0.010483 -0.002471 -0.005202 0.028265 -0.010243 -0.016311 0.038570 0.007342 0.010444 0.003807 -0.005280 -0.003310 0.005134 0.007489 -0.047755 -0.027845 0.046310 0.005571 0.043116 -0.036812 -0.016760 0.046090 -0.013335 -0.031435 -0.003153 -0.000443 -0.021908 -0.016595 0.026648 -0.007694 0.032249 -0.029345 -0.015857 -0.030333 -0.039939 0.010133 0.029732 0.015110 -0.040346 -0.036494 0.006047 -0.001932 0.009311 0.017366 0.022367 -0.035148 0.024132 -0.016826 -0.038267 -0.014465 0.035697 0.015095 0.001891 0.031825 -0.036120 -0.031954 0.008394 0.004066 -0.002413 0.003663 -0.018896 0.024569 -0.045978 -0.036488 0.010585 -0.012452 -0.005285 -0.038290 -0.017152 0.008152 0.038867 -0.033346 -0.007688 0.014965 0.042153 -0.040148 0.037142 -0.021506 0.042164 -0.043081 0.041052 0.049030 -0.002890 -0.017627 -0.045723 -0.023315 0.016723 -0.009597 -0.035941 0.048934 -0.026004 -0.020530 0.043207 -0.047698 0.049969 -0.011880 0.003688 -0.023212 -0.002109 0.030756 -0.000314 -0.004689 0.000779 -0.024555 0.041082 0.021051 -0.016834 -0.023785 0.008485 -0.038256 -0.012262 -0.000525 0.037013 0.042224 -0.014576 0.037072 0.030420 -0.048480 -0.031904 0.046038 0.001345 -0.025744 0.017610 -0.039117 0.028988 0.034549 0.022490 -0.041847 -0.039712 0.044407 0.023357 -0.019177 -0.036139 0.034977 0.009308 -0.008865 -0.001896 0.045163 -0.034138 -0.008190 -0.021327 -0.038423 0.010384 0.010666 -0.029893 -0.033616 -0.013448 -0.002759 0.029550 0.032370 -0.036767 -0.000489 0.038896 0.027052 0.000721 0.049607 -0.004780 0.030556 -0.019087 0.026275 0.046296 -0.005517 -0.010134 0.033260 -0.026057 0.008275 0.039135 0.048513 0.002460 0.032788 0.044426 0.032574 0.043578 -0.004750 -0.045647 0.025511 -0.035816 -0.016504 -0.038281 0.023466 0.032387 0.022838 -0.010474 -0.000448 -0.003084 0.045168 -0.035265 0.030989 -0.009128 -0.017196 -0.002236 -0.004126 -0.021691 -0.034003 0.046126 0.025690 -0.028797 0.000035 -0.030121 0.002716 -0.018073 -0.041862 -0.024374 0.004974 -0.034634 -0.038276 0.046093 -0.024923 -0.013032 0.014430 -0.019463 -0.038393 0.038648 -0.037530 0.011229 0.025323 -0.036930 -0.010184 0.022588 -0.044805 0.032568 0.001084 0.024516 -0.046937 -0.032766 -0.005422 -0.042387 0.049511 -0.032173 -0.045212 0.027168 0.022211 0.013572 -0.021065 -0.043183 -0.025885 0.001047 0.018046 0.001360 -0.012952 -0.011399 -0.033635 -0.012189 -0.007525 -0.022142 -0.015306 -0.022626 0.045264 -0.031068 -0.022893 0.008328 -0.034865 -0.023578 -0.015061 0.004289 -0.003624 0.003612 -0.010896 0.028618 -0.002938 -0.021159 -0.038498 0.038662 -0.002838 -0.019035 -0.016656 -0.024508 0.048667 -0.018341 -0.020305 -0.044408 0.028838 -0.011188 0.000628 0.049521 -0.026093 0.029447 0.034577 -0.007825 0.025703 -0.043992 0.012431 0.007525 0.033413 0.044705 0.025132 0.039179 0.009501 0.021912 -0.004577 -0.042181 0.049795 -0.045262 0.005375 -0.033889 -0.029948 -0.009876 0.003618 -0.006418 0.036833 0.000140 -0.011416 -0.034065 0.017311 -0.041785 0.009281 0.032063 -0.046700 -0.006552 -0.016286 0.039752 0.031677 -0.013750 -0.022476 0.022327 -0.031881 0.026322 0.011786 0.004788 0.030105 -0.008170 0.029037 0.048462 -0.039306 -0.008988 -0.048532 0.048175 0.010640 -0.031559 -0.035744 -0.047479 -0.036766 0.039078 0.021100 -0.045884 -0.043130 0.040591 0.019840 0.018244 -0.019038 -0.025058 -0.009979 -0.034425 0.007541 0.038825 -0.025216 -0.045827 0.020189 -0.036963 -0.012882 0.042494 0.013100 -0.020105 0.022138 -0.036527 -0.042604 -0.014469 0.011532 -0.001922 0.035122 0.040871 -0.021750 -0.002077 0.038296 -0.010271 0.028114 0.019403 -0.034691 0.024153 0.047438 0.040547 -0.023959 0.002251 0.027184 -0.043353 -0.012767 0.022211 0.042562 0.013923 0.031096 -0.043727 -0.014126 -0.049577 0.024974 -0.011370 0.012201 0.027246 0.005254 0.025815 -0.020173 0.044744 0.029979 -0.017456 0.037090 0.003400 -0.049882 -0.022605 -0.014650 0.037175 -0.047606 0.032736 0.004982 0.002837 0.039478 -0.007326 -0.038887 0.036366 -0.045627 0.013634 -0.034624 0.009649 0.026707 0.001486 -0.035137 -0.027620 0.014467 0.031851 0.015097 -0.020315 0.013339 0.023881 -0.040222 0.015544 0.029156 -0.044385 -0.003788 -0.039974 0.002309 -0.015024 -0.049826 0.034428 0.012472 0.034090 -0.049032 0.032145 0.036135 -0.011241 -0.033727 -0.039936 -0.016518 0.039961 0.030943 -0.047387 0.011500 -0.049576 0.044945 -0.023684 0.001132 0.034988 -0.025819 -0.033594 -0.026841 -0.043771 0.009469 -0.015138 -0.018028 0.022644 -0.025189 -0.003832 -0.037154 -0.002015 -0.018556 0.015209 0.034707 -0.015325 -0.032671 -0.030795 -0.043753 0.029921 -0.008273 0.008666 -0.010394 0.036614 -0.043432 0.000728 0.029373 -0.022796 0.023015 0.043393 -0.007390 0.016611 0.029149 -0.049572 -0.038750 0.001112 0.045133 -0.023325 -0.008911 0.049156 -0.003929 0.017070 -0.001403 -0.013739 0.036688 0.029334 0.007722 0.039237 -0.018240 -0.027733 0.020014 0.045986 0.033158 0.049886 -0.014049 0.021904 -0.001074 -0.042534 -0.016752 -0.030866 0.023382 -0.000766 -0.005587 0.017975 -0.021865 -0.030817 0.013622 0.013296 -0.012170 0.021028 0.012224 0.005803 0.031906 -0.041328 -0.043003 -0.014910 -0.023725 -0.038517 -0.027206 -0.003140 0.019701 -0.000922 0.031211 0.030103 0.025556 0.042822 0.044062 -0.001070 -0.038106 0.041122 0.035409 0.049271 -0.039463 0.032370 0.040212 0.034260 0.045272 0.043236 -0.004287 0.045525 -0.025529 0.009049 -0.013028 0.044501 0.015581 0.017757 -0.038164 0.012672 0.027782 0.005703 0.024273 -0.022092 0.023302 -0.003971 0.044484 -0.009717 -0.020100 -0.012512 -0.042689 -0.034263 -0.032388 -0.026119 0.000523 0.001821 -0.018404 0.046300 -0.002513 0.025414 -0.004647 -0.010197 0.012996 0.008792 0.029418 0.009767 -0.021731 0.009621 0.008999 0.025329 0.020055 -0.012172 -0.015326 -0.042480 0.008336 -0.047051 -0.045624 -0.006475 -0.027162 0.010268 0.048596 0.038985 0.045540 0.022746 -0.017892 0.014062 0.025225 -0.046186 -0.013983 0.042060 0.044268 0.048041 -0.012239 0.016016 -0.006117 0.012856 -0.003681 0.019344 -0.049553 0.046399 0.040166 -0.015282 0.012350 0.025290 -0.000133 0.042720 0.012359 -0.007221 -0.017672 0.010719 -0.014921 -0.031310 0.025416 -0.026742 -0.019875 -0.041582 0.030118 0.035683 0.031669 -0.009165 -0.021677 0.025670 -0.025683 0.040802 -0.022756 -0.017145 0.025096 -0.006278 -0.010421 -0.023624 0.036637 0.039995 0.027931 -0.040778 -0.013350 0.041135 0.033613 0.005655 0.035253 0.014575 0.047978 0.024821 -0.001026 -0.026413 0.035523 0.008257 0.034758 -0.011086 -0.026070 -0.027711 0.048194 -0.024447 0.030228 0.039738 -0.022335 0.027979 0.001742 0.048718 0.021342 0.039270 0.022269 -0.020976 0.045780 -0.030284 -0.033924 0.030289 0.005429 0.046078 0.037051 -0.048862 -0.009872 -0.009641 -0.018084 0.042587 0.011382 0.010123 -0.020616 0.040678 0.007086 -0.005127 0.002400 0.037432 -0.018996 -0.006515 0.019325 -0.017229 -0.026260 -0.048677 -0.037794 0.008914 0.025766 -0.042760 
wcls
0.019299 0.013244 -0.043209 0.017035 -0.047167 -0.003126 0.020283 0.034507 0.008156 -0.010905 0.010990 -0.030445 -0.023272 0.039704 -0.038401 0.021058 0.018551 0.017826 0.015651 -0.044617 0.011309 0.046110 -0.027843 -0.028292 -0.037765 -0.001131 0.042142 -0.021037 0.001110 -0.049591 -0.044856 -0.029251 0.014202 -0.038095 0.037752 0.016586 0.008927 0.008187 0.001275 -0.032750 0.047437 -0.037583 -0.013034 -0.025648 -0.047718 -0.001278 0.045556 0.020815 -0.033193 0.011235 0.026224 0.027840 0.007296 0.048331 0.049504 0.019481 -0.002851 0.041597 0.048394 0.048217 0.041955 -0.046513 -0.031084 0.005706 -0.034496 -0.043149 -0.027522 0.024649 0.015178 0.023879 0.042009 0.012745 0.036423 -0.020894 0.037219 0.038819 0.027958 0.032904 0.009761 0.044595 -0.005381 -0.014103 0.022335 -0.048610 -0.015722 0.021889 0.020904 0.031465 0.013529 0.019348 0.029732 0.005525 0.022880 0.048699 -0.038721 0.038465 -0.043819 -0.016191 0.013140 0.020759 -0.042314 0.005160 -0.016507 0.044090 0.034263 -0.029284 0.032919 0.012214 -0.046385 -0.007314 0.006810 -0.002192 0.029241 -0.020688 -0.000660 -0.036847 -0.048654 -0.029598 0.044758 0.015009 0.039896 0.024644 -0.029307 0.012920 0.023487 -0.017872 0.001533 0.029184 0.016579 -0.035217 0.000024 0.023815 0.020050 0.033640 0.018006 0.004403 -0.045535 0.001041 -0.033258 -0.041816 0.043831 0.023672 0.006105 0.022674 -0.046289 -0.044407 0.035947 -0.045440 -0.023901 0.030823 0.019667 -0.033913 0.005572 0.040471 0.029125 -0.020839 -0.027297 -0.019224 -0.041547 0.038854 -0.003773 0.008583 0.012751 -0.034190 -0.007655 -0.019109 0.020339 -0.003076 0.032056 0.037212 0.005247 0.026019 0.011008 -0.038515 -0.001184 0.014222 -0.032782 -0.014928 0.019074 -0.006435 -0.034007 -0.011152 0.009760 0.021668 -0.020579 -0.011009 -0.049062 0.002236 0.019867 -0.040506 -0.008812 -0.034357 0.018019 -0.045929 -0.018422 -0.039324 -0.014904 -0.047945 0.007739 -0.032708 0.039400 -0.036879 0.043449 0.000551 -0.025259 -0.007599 -0.035097 -0.007953 0.027144 0.033857 0.035487 0.043277 -0.027362 -0.004821 0.014869 0.001990 0.034096 0.015736 -0.045845 0.003891 0.025161 -0.004729 0.019461 -0.006700 -0.000867 -0.048988 0.003945 0.034340 -0.047000 -0.038387 -0.048439 0.042335 -0.025338 0.044938 -0.007186 -0.000666 -0.012731 0.007644 0.041309 -0.035395 -0.008673 0.026794 -0.042121 0.014115 -0.028043 0.022733 -0.033908 -0.043957 -0.011548 -0.029770 0.009918 -0.036398 0.015486 -0.020636 0.006883 -0.035256 -0.019875 -0.039253 0.049002 -0.016759 -0.027694 -0.049492 -0.024482 -0.003085 0.045390 0.018275 0.046193 -0.017397 -0.024137 0.037445 -0.002848 0.017291 0.013959 0.004947 -0.018679 0.036045 -0.022390 -0.002657 0.042012 0.015991 0.017499 0.001859 0.029520 -0.017089 0.031152 -0.013670 -0.002416 -0.038596 -0.003131 -0.003439 -0.005388 0.019310 -0.002975 0.020088 -0.033828 -0.007639 -0.011685 -0.037680 0.024920 0.014126 0.049718 -0.027972 -0.018627 0.013846 0.026723 0.012654 -0.000160 -0.045492 -0.040034 -0.008173 0.020460 0.027425 0.043653 -0.000049 -0.039691 0.024767 0.036248 0.007865 0.036141 -0.016747 -0.045747 -0.019257 -0.047451 0.001381 -0.049218 -0.031325 0.043708 -0.010939 -0.019047 0.018582 -0.046856 -0.019366 0.040567 -0.015528 0.044434 0.017459 0.046806 -0.005815 0.021882 -0.043032 0.035979 -0.007684 0.034376 0.029611 0.042243 0.044657 0.004353 0.028471 0.002496 -0.009530 -0.038304 0.006840 0.021007 -0.035777 -0.041791 0.021926 -0.017162 -0.048148 -0.039085 0.013724 0.020368 -0.036006 0.044291 0.010864 -0.001598 0.038659 -0.021737 -0.004566 -0.017333 -0.049863 0.002398 -0.031187 -0.007556 -0.013239 0.048412 -0.015321 -0.018590 0.002755 -0.036863 0.033893 0.043216 -0.025181 -0.009274 0.014361 -0.011192 -0.001124 -0.013757 0.021764 0.000669 -0.002903 -0.014541 -0.028992 0.011046 -0.020309 0.031815 -0.040590 -0.031698 -0.039976 0.004787 0.001075 -0.040063 -0.042892 0.019822 0.002487 -0.006184 0.018184 0.037106 0.025163 -0.029116 -0.049810 0.009003 -0.035961 -0.025047 0.049673 0.028348 0.013887 -0.001652 -0.035448 -0.014377 0.049143 0.011592 0.021011 -0.029926 -0.027430 -0.049364 -0.048176 -0.018097 -0.031139 -0.038217 0.036618 0.019876 -0.028172 0.043426 -0.010380 0.024239 -0.012595 -0.042250 0.011295 -0.037466 -0.021404 0.011442 0.021486 -0.007412 0.036354 0.021114 -0.029111 0.000193 -0.030444 -0.014811 0.035736 -0.031371 0.046886 0.006673 -0.011366 -0.030610 0.007239 -0.009608 0.001223 0.026033 0.002107 -0.012228 -0.004158 0.023866 -0.018628 0.035165 -0.001981 0.018742 0.043097 -0.040738 0.031201 -0.028298 0.020722 0.002661 0.014229 0.007010 -0.026240 0.035090 -0.042857 -0.006732 -0.029618 0.042637 0.011836 -0.032753 -0.000517 -0.049574 -0.013407 -0.043321 -0.009226 0.037776 0.032669 0.042837 -0.024498 -0.021532 0.016659 0.006835 -0.036153 -0.035498 -0.024474 -0.043061 -0.026065 -0.043292 -0.021421 0.044601 0.009335 0.042768 0.001565 0.033021 0.027796 0.008674 -0.023775 0.048152 0.001473 
